SNNS network definition file V1.4-3D
generated at Wed Feb 23 16:02:11 1994

network name : tc
source files :
no. of units : 33
no. of connections : 288
no. of unit types : 0
no. of site types : 0


learning function : Rprop
update function   : ENZO_prop


unit default section :

act      | bias     | st | subnet | layer | act func    | out func
---------|----------|----|--------|-------|-------------|-------------
 0.00000 |  0.00000 | h  |      0 |     1 | Act_Logistic | Out_Identity 
---------|----------|----|--------|-------|-------------|-------------


unit definition section :

no. | typeName | unitName | act      | bias     | st | position | act func      | out func | sites
----|----------|----------|----------|----------|----|----------|---------------|----------|-------
  1 |          |          |  0.00000 |  0.00000 | i  |  2, 8,20484 | Act_Logistic |          | 
  2 |          |          |  0.00000 |  0.00000 | i  |  3, 8,20484 | Act_Logistic |          | 
  3 |          |          |  0.00000 |  0.00000 | i  |  4, 8,20484 | Act_Logistic |          | 
  4 |          |          |  0.00000 |  0.00000 | i  |  5, 8,20484 | Act_Logistic |          | 
  5 |          |          |  0.00000 |  0.00000 | i  |  2, 9,20484 | Act_Logistic |          | 
  6 |          |          |  0.00000 |  0.00000 | i  |  3, 9,20484 | Act_Logistic |          | 
  7 |          |          |  0.00000 |  0.00000 | i  |  4, 9,20484 | Act_Logistic |          | 
  8 |          |          |  0.00000 |  0.00000 | i  |  5, 9,20484 | Act_Logistic |          | 
  9 |          |          |  0.00000 |  0.00000 | i  |  2,10,20484 | Act_Logistic |          | 
 10 |          |          |  0.00000 |  0.00000 | i  |  3,10,20484 | Act_Logistic |          | 
 11 |          |          |  0.00000 |  0.00000 | i  |  4,10,20484 | Act_Logistic |          | 
 12 |          |          |  0.00000 |  0.00000 | i  |  5,10,20484 | Act_Logistic |          | 
 13 |          |          |  0.00000 |  0.00000 | i  |  2,11,20484 | Act_Logistic |          | 
 14 |          |          |  0.00000 |  0.00000 | i  |  3,11,20484 | Act_Logistic |          | 
 15 |          |          |  0.00000 |  0.00000 | i  |  4,11,20484 | Act_Logistic |          | 
 16 |          |          |  0.00000 |  0.00000 | i  |  5,11,20484 | Act_Logistic |          | 
 17 |          |          |  0.00000 |  0.00000 | h  |  8, 2,20484 | Act_Logistic |          | 
 18 |          |          |  0.00000 |  0.00000 | h  |  8, 3,20484 | Act_Logistic |          | 
 19 |          |          |  0.00000 |  0.00000 | h  |  8, 4,20484 | Act_Logistic |          | 
 20 |          |          |  0.00000 |  0.00000 | h  |  8, 5,20484 | Act_Logistic |          | 
 21 |          |          |  0.00000 |  0.00000 | h  |  8, 6,20484 | Act_Logistic |          | 
 22 |          |          |  0.00000 |  0.00000 | h  |  8, 7,20484 | Act_Logistic |          | 
 23 |          |          |  0.00000 |  0.00000 | h  |  8, 8,20484 | Act_Logistic |          | 
 24 |          |          |  0.00000 |  0.00000 | h  |  8, 9,20484 | Act_Logistic |          | 
 25 |          |          |  0.00000 |  0.00000 | h  |  8,10,20484 | Act_Logistic |          | 
 26 |          |          |  0.00000 |  0.00000 | h  |  8,11,20484 | Act_Logistic |          | 
 27 |          |          |  0.00000 |  0.00000 | h  |  8,12,20484 | Act_Logistic |          | 
 28 |          |          |  0.00000 |  0.00000 | h  |  8,13,20484 | Act_Logistic |          | 
 29 |          |          |  0.00000 |  0.00000 | h  |  8,14,20484 | Act_Logistic |          | 
 30 |          |          |  0.00000 |  0.00000 | h  |  8,15,20484 | Act_Logistic |          | 
 31 |          |          |  0.00000 |  0.00000 | h  |  8,16,20484 | Act_Logistic |          | 
 32 |          |          |  0.00000 |  0.00000 | h  |  8,17,20484 | Act_Logistic |          | 
 33 |          |          |  0.00000 |  0.00000 | o  | 14, 9,20484 | Act_Logistic |          | 
----|----------|----------|----------|----------|----|----------|---------------|----------|-------


connection definition section :

target | site | source:weight
-------|------|---------------------------------------------------------------------------------------------------------------------
    17 |      |  1: 0.00000,  2: 0.00000,  3: 0.00000,  4: 0.00000,  5: 0.00000,  6: 0.00000,  7: 0.00000,  8: 0.00000,  9: 0.00000,
                10: 0.00000, 11: 0.00000, 12: 0.00000, 13: 0.00000, 14: 0.00000, 15: 0.00000, 16: 0.00000
    18 |      |  1: 0.00000,  2: 0.00000,  3: 0.00000,  4: 0.00000,  5: 0.00000,  6: 0.00000,  7: 0.00000,  8: 0.00000,  9: 0.00000,
                10: 0.00000, 11: 0.00000, 12: 0.00000, 13: 0.00000, 14: 0.00000, 15: 0.00000, 16: 0.00000
    19 |      |  1: 0.00000,  2: 0.00000,  3: 0.00000,  4: 0.00000,  5: 0.00000,  6: 0.00000,  7: 0.00000,  8: 0.00000,  9: 0.00000,
                10: 0.00000, 11: 0.00000, 12: 0.00000, 13: 0.00000, 14: 0.00000, 15: 0.00000, 16: 0.00000
    20 |      |  1: 0.00000,  2: 0.00000,  3: 0.00000,  4: 0.00000,  5: 0.00000,  6: 0.00000,  7: 0.00000,  8: 0.00000,  9: 0.00000,
                10: 0.00000, 11: 0.00000, 12: 0.00000, 13: 0.00000, 14: 0.00000, 15: 0.00000, 16: 0.00000
    21 |      |  1: 0.00000,  2: 0.00000,  3: 0.00000,  4: 0.00000,  5: 0.00000,  6: 0.00000,  7: 0.00000,  8: 0.00000,  9: 0.00000,
                10: 0.00000, 11: 0.00000, 12: 0.00000, 13: 0.00000, 14: 0.00000, 15: 0.00000, 16: 0.00000
    22 |      |  1: 0.00000,  2: 0.00000,  3: 0.00000,  4: 0.00000,  5: 0.00000,  6: 0.00000,  7: 0.00000,  8: 0.00000,  9: 0.00000,
                10: 0.00000, 11: 0.00000, 12: 0.00000, 13: 0.00000, 14: 0.00000, 15: 0.00000, 16: 0.00000
    23 |      |  1: 0.00000,  2: 0.00000,  3: 0.00000,  4: 0.00000,  5: 0.00000,  6: 0.00000,  7: 0.00000,  8: 0.00000,  9: 0.00000,
                10: 0.00000, 11: 0.00000, 12: 0.00000, 13: 0.00000, 14: 0.00000, 15: 0.00000, 16: 0.00000
    24 |      |  1: 0.00000,  2: 0.00000,  3: 0.00000,  4: 0.00000,  5: 0.00000,  6: 0.00000,  7: 0.00000,  8: 0.00000,  9: 0.00000,
                10: 0.00000, 11: 0.00000, 12: 0.00000, 13: 0.00000, 14: 0.00000, 15: 0.00000, 16: 0.00000
    25 |      |  1: 0.00000,  2: 0.00000,  3: 0.00000,  4: 0.00000,  5: 0.00000,  6: 0.00000,  7: 0.00000,  8: 0.00000,  9: 0.00000,
                10: 0.00000, 11: 0.00000, 12: 0.00000, 13: 0.00000, 14: 0.00000, 15: 0.00000, 16: 0.00000
    26 |      |  1: 0.00000,  2: 0.00000,  3: 0.00000,  4: 0.00000,  5: 0.00000,  6: 0.00000,  7: 0.00000,  8: 0.00000,  9: 0.00000,
                10: 0.00000, 11: 0.00000, 12: 0.00000, 13: 0.00000, 14: 0.00000, 15: 0.00000, 16: 0.00000
    27 |      |  1: 0.00000,  2: 0.00000,  3: 0.00000,  4: 0.00000,  5: 0.00000,  6: 0.00000,  7: 0.00000,  8: 0.00000,  9: 0.00000,
                10: 0.00000, 11: 0.00000, 12: 0.00000, 13: 0.00000, 14: 0.00000, 15: 0.00000, 16: 0.00000
    28 |      |  1: 0.00000,  2: 0.00000,  3: 0.00000,  4: 0.00000,  5: 0.00000,  6: 0.00000,  7: 0.00000,  8: 0.00000,  9: 0.00000,
                10: 0.00000, 11: 0.00000, 12: 0.00000, 13: 0.00000, 14: 0.00000, 15: 0.00000, 16: 0.00000
    29 |      |  1: 0.00000,  2: 0.00000,  3: 0.00000,  4: 0.00000,  5: 0.00000,  6: 0.00000,  7: 0.00000,  8: 0.00000,  9: 0.00000,
                10: 0.00000, 11: 0.00000, 12: 0.00000, 13: 0.00000, 14: 0.00000, 15: 0.00000, 16: 0.00000
    30 |      |  1: 0.00000,  2: 0.00000,  3: 0.00000,  4: 0.00000,  5: 0.00000,  6: 0.00000,  7: 0.00000,  8: 0.00000,  9: 0.00000,
                10: 0.00000, 11: 0.00000, 12: 0.00000, 13: 0.00000, 14: 0.00000, 15: 0.00000, 16: 0.00000
    31 |      |  1: 0.00000,  2: 0.00000,  3: 0.00000,  4: 0.00000,  5: 0.00000,  6: 0.00000,  7: 0.00000,  8: 0.00000,  9: 0.00000,
                10: 0.00000, 11: 0.00000, 12: 0.00000, 13: 0.00000, 14: 0.00000, 15: 0.00000, 16: 0.00000
    32 |      |  1: 0.00000,  2: 0.00000,  3: 0.00000,  4: 0.00000,  5: 0.00000,  6: 0.00000,  7: 0.00000,  8: 0.00000,  9: 0.00000,
                10: 0.00000, 11: 0.00000, 12: 0.00000, 13: 0.00000, 14: 0.00000, 15: 0.00000, 16: 0.00000
    33 |      |  1: 0.00000,  2: 0.00000,  3: 0.00000,  4: 0.00000,  5: 0.00000,  6: 0.00000,  7: 0.00000,  8: 0.00000,  9: 0.00000,
                10: 0.00000, 11: 0.00000, 12: 0.00000, 13: 0.00000, 14: 0.00000, 15: 0.00000, 16: 0.00000, 17: 0.00000, 18: 0.00000,
                19: 0.00000, 20: 0.00000, 21: 0.00000, 22: 0.00000, 23: 0.00000, 24: 0.00000, 25: 0.00000, 26: 0.00000, 27: 0.00000,
                28: 0.00000, 29: 0.00000, 30: 0.00000, 31: 0.00000, 32: 0.00000
-------|------|---------------------------------------------------------------------------------------------------------------------
