SNNS network definition file V1.4-3D
generated at Fri Feb 18 19:46:34 1994

network name : sa
source files :
no. of units : 55
no. of connections : 1076
no. of unit types : 0
no. of site types : 0


learning function : Rprop
update function   : ENZO_prop


unit default section :

act      | bias     | st | subnet | layer | act func     | out func
---------|----------|----|--------|-------|--------------|-------------
 0.00000 |  0.00000 | h  |      0 |     1 | Act_Logistic | Out_Identity 
---------|----------|----|--------|-------|--------------|-------------


unit definition section :

no. | typeName | unitName | act      | bias     | st | position | act func | out func | sites
----|----------|----------|----------|----------|----|----------|----------|----------|-------
  1 |          |          |  0.00000 |  0.00000 | i  |  2, 2,20484 |||
  2 |          |          |  0.00000 |  0.00000 | i  |  2, 3,20484 |||
  3 |          |          |  0.00000 |  0.00000 | i  |  2, 4,20484 |||
  4 |          |          |  0.00000 |  0.00000 | i  |  2, 5,20484 |||
  5 |          |          |  0.00000 |  0.00000 | i  |  2, 6,20484 |||
  6 |          |          |  0.00000 |  0.00000 | i  |  2, 7,20484 |||
  7 |          |          |  0.00000 |  0.00000 | i  |  2, 8,20484 |||
  8 |          |          |  0.00000 |  0.00000 | i  |  2, 9,20484 |||
  9 |          |          |  0.00000 |  0.00000 | i  |  2,10,20484 |||
 10 |          |          |  0.00000 |  0.00000 | i  |  2,11,20484 |||
 11 |          |          |  0.00000 |  0.00000 | i  |  2,12,20484 |||
 12 |          |          |  0.00000 |  0.00000 | i  |  2,13,20484 |||
 13 |          |          |  0.00000 |  0.00000 | i  |  2,14,20484 |||
 14 |          |          |  0.00000 |  0.00000 | i  |  2,15,20484 |||
 15 |          |          |  0.00000 |  0.00000 | i  |  2,16,20484 |||
 16 |          |          |  0.00000 |  0.00000 | i  |  2,17,20484 |||
 17 |          |          |  0.00000 |  0.00000 | i  |  2,18,20484 |||
 18 |          |          |  0.00000 |  0.00000 | i  |  2,19,20484 |||
 19 |          |          |  0.00000 |  0.00000 | i  |  2,20,20484 |||
 20 |          |          |  0.00000 |  0.00000 | i  |  2,21,20484 |||
 21 |          |          |  0.00000 |  0.00000 | i  |  2,22,20484 |||
 22 |          |          |  0.00000 |  0.00000 | i  |  2,23,20484 |||
 23 |          |          |  0.00000 |  0.00000 | i  |  2,24,20484 |||
 24 |          |          |  0.00000 |  0.00000 | h  |  7, 8,20484 |||
 25 |          |          |  0.00000 |  0.00000 | h  |  7, 9,20484 |||
 26 |          |          |  0.00000 |  0.00000 | h  |  7,10,20484 |||
 27 |          |          |  0.00000 |  0.00000 | h  |  7,11,20484 |||
 28 |          |          |  0.00000 |  0.00000 | h  |  7,12,20484 |||
 29 |          |          |  0.00000 |  0.00000 | h  |  7,13,20484 |||
 30 |          |          |  0.00000 |  0.00000 | h  |  7,14,20484 |||
 31 |          |          |  0.00000 |  0.00000 | h  |  7,15,20484 |||
 32 |          |          |  0.00000 |  0.00000 | h  |  7,16,20484 |||
 33 |          |          |  0.00000 |  0.00000 | h  |  7,17,20484 |||
 34 |          |          |  0.00000 |  0.00000 | h  |  7,18,20484 |||
 35 |          |          |  0.00000 |  0.00000 | h  |  7,19,20484 |||
 36 |          |          |  0.00000 |  0.00000 | h  | 10, 9,20484 |||
 37 |          |          |  0.00000 |  0.00000 | h  | 10,10,20484 |||
 38 |          |          |  0.00000 |  0.00000 | h  | 10,11,20484 |||
 39 |          |          |  0.00000 |  0.00000 | h  | 10,12,20484 |||
 40 |          |          |  0.00000 |  0.00000 | h  | 10,13,20484 |||
 41 |          |          |  0.00000 |  0.00000 | h  | 10,14,20484 |||
 42 |          |          |  0.00000 |  0.00000 | h  | 10,15,20484 |||
 43 |          |          |  0.00000 |  0.00000 | h  | 10,16,20484 |||
 44 |          |          |  0.00000 |  0.00000 | h  | 10,17,20484 |||
 45 |          |          |  0.00000 |  0.00000 | h  | 10,18,20484 |||
 46 |          |          |  0.00000 |  0.00000 | o  | 16, 9,20484 |||
 47 |          |          |  0.00000 |  0.00000 | o  | 16,10,20484 |||
 48 |          |          |  0.00000 |  0.00000 | o  | 16,11,20484 |||
 49 |          |          |  0.00000 |  0.00000 | o  | 16,12,20484 |||
 50 |          |          |  0.00000 |  0.00000 | o  | 16,13,20484 |||
 51 |          |          |  0.00000 |  0.00000 | o  | 16,14,20484 |||
 52 |          |          |  0.00000 |  0.00000 | o  | 16,15,20484 |||
 53 |          |          |  0.00000 |  0.00000 | o  | 16,16,20484 |||
 54 |          |          |  0.00000 |  0.00000 | o  | 16,17,20484 |||
 55 |          |          |  0.00000 |  0.00000 | o  | 16,18,20484 |||
----|----------|----------|----------|----------|----|----------|----------|----------|-------


connection definition section :

target | site | source:weight
-------|------|---------------------------------------------------------------------------------------------------------------------
    24 |      |  1: 0.00000,  2: 0.00000,  3: 0.00000,  4: 0.00000,  5: 0.00000,  6: 0.00000,  7: 0.00000,  8: 0.00000,  9: 0.00000,
                10: 0.00000, 11: 0.00000, 12: 0.00000, 13: 0.00000, 14: 0.00000, 15: 0.00000, 16: 0.00000, 17: 0.00000, 18: 0.00000,
                19: 0.00000, 20: 0.00000, 21: 0.00000, 22: 0.00000, 23: 0.00000
    25 |      |  1: 0.00000,  2: 0.00000,  3: 0.00000,  4: 0.00000,  5: 0.00000,  6: 0.00000,  7: 0.00000,  8: 0.00000,  9: 0.00000,
                10: 0.00000, 11: 0.00000, 12: 0.00000, 13: 0.00000, 14: 0.00000, 15: 0.00000, 16: 0.00000, 17: 0.00000, 18: 0.00000,
                19: 0.00000, 20: 0.00000, 21: 0.00000, 22: 0.00000, 23: 0.00000
    26 |      |  1: 0.00000,  2: 0.00000,  3: 0.00000,  4: 0.00000,  5: 0.00000,  6: 0.00000,  7: 0.00000,  8: 0.00000,  9: 0.00000,
                10: 0.00000, 11: 0.00000, 12: 0.00000, 13: 0.00000, 14: 0.00000, 15: 0.00000, 16: 0.00000, 17: 0.00000, 18: 0.00000,
                19: 0.00000, 20: 0.00000, 21: 0.00000, 22: 0.00000, 23: 0.00000
    27 |      |  1: 0.00000,  2: 0.00000,  3: 0.00000,  4: 0.00000,  5: 0.00000,  6: 0.00000,  7: 0.00000,  8: 0.00000,  9: 0.00000,
                10: 0.00000, 11: 0.00000, 12: 0.00000, 13: 0.00000, 14: 0.00000, 15: 0.00000, 16: 0.00000, 17: 0.00000, 18: 0.00000,
                19: 0.00000, 20: 0.00000, 21: 0.00000, 22: 0.00000, 23: 0.00000
    28 |      |  1: 0.00000,  2: 0.00000,  3: 0.00000,  4: 0.00000,  5: 0.00000,  6: 0.00000,  7: 0.00000,  8: 0.00000,  9: 0.00000,
                10: 0.00000, 11: 0.00000, 12: 0.00000, 13: 0.00000, 14: 0.00000, 15: 0.00000, 16: 0.00000, 17: 0.00000, 18: 0.00000,
                19: 0.00000, 20: 0.00000, 21: 0.00000, 22: 0.00000, 23: 0.00000
    29 |      |  1: 0.00000,  2: 0.00000,  3: 0.00000,  4: 0.00000,  5: 0.00000,  6: 0.00000,  7: 0.00000,  8: 0.00000,  9: 0.00000,
                10: 0.00000, 11: 0.00000, 12: 0.00000, 13: 0.00000, 14: 0.00000, 15: 0.00000, 16: 0.00000, 17: 0.00000, 18: 0.00000,
                19: 0.00000, 20: 0.00000, 21: 0.00000, 22: 0.00000, 23: 0.00000
    30 |      |  1: 0.00000,  2: 0.00000,  3: 0.00000,  4: 0.00000,  5: 0.00000,  6: 0.00000,  7: 0.00000,  8: 0.00000,  9: 0.00000,
                10: 0.00000, 11: 0.00000, 12: 0.00000, 13: 0.00000, 14: 0.00000, 15: 0.00000, 16: 0.00000, 17: 0.00000, 18: 0.00000,
                19: 0.00000, 20: 0.00000, 21: 0.00000, 22: 0.00000, 23: 0.00000
    31 |      |  1: 0.00000,  2: 0.00000,  3: 0.00000,  4: 0.00000,  5: 0.00000,  6: 0.00000,  7: 0.00000,  8: 0.00000,  9: 0.00000,
                10: 0.00000, 11: 0.00000, 12: 0.00000, 13: 0.00000, 14: 0.00000, 15: 0.00000, 16: 0.00000, 17: 0.00000, 18: 0.00000,
                19: 0.00000, 20: 0.00000, 21: 0.00000, 22: 0.00000, 23: 0.00000
    32 |      |  1: 0.00000,  2: 0.00000,  3: 0.00000,  4: 0.00000,  5: 0.00000,  6: 0.00000,  7: 0.00000,  8: 0.00000,  9: 0.00000,
                10: 0.00000, 11: 0.00000, 12: 0.00000, 13: 0.00000, 14: 0.00000, 15: 0.00000, 16: 0.00000, 17: 0.00000, 18: 0.00000,
                19: 0.00000, 20: 0.00000, 21: 0.00000, 22: 0.00000, 23: 0.00000
    33 |      |  1: 0.00000,  2: 0.00000,  3: 0.00000,  4: 0.00000,  5: 0.00000,  6: 0.00000,  7: 0.00000,  8: 0.00000,  9: 0.00000,
                10: 0.00000, 11: 0.00000, 12: 0.00000, 13: 0.00000, 14: 0.00000, 15: 0.00000, 16: 0.00000, 17: 0.00000, 18: 0.00000,
                19: 0.00000, 20: 0.00000, 21: 0.00000, 22: 0.00000, 23: 0.00000
    34 |      |  1: 0.00000,  2: 0.00000,  3: 0.00000,  4: 0.00000,  5: 0.00000,  6: 0.00000,  7: 0.00000,  8: 0.00000,  9: 0.00000,
                10: 0.00000, 11: 0.00000, 12: 0.00000, 13: 0.00000, 14: 0.00000, 15: 0.00000, 16: 0.00000, 17: 0.00000, 18: 0.00000,
                19: 0.00000, 20: 0.00000, 21: 0.00000, 22: 0.00000, 23: 0.00000
    35 |      |  1: 0.00000,  2: 0.00000,  3: 0.00000,  4: 0.00000,  5: 0.00000,  6: 0.00000,  7: 0.00000,  8: 0.00000,  9: 0.00000,
                10: 0.00000, 11: 0.00000, 12: 0.00000, 13: 0.00000, 14: 0.00000, 15: 0.00000, 16: 0.00000, 17: 0.00000, 18: 0.00000,
                19: 0.00000, 20: 0.00000, 21: 0.00000, 22: 0.00000, 23: 0.00000
    36 |      |  1: 0.00000,  2: 0.00000,  3: 0.00000,  4: 0.00000,  5: 0.00000,  6: 0.00000,  7: 0.00000,  8: 0.00000,  9: 0.00000,
                10: 0.00000, 11: 0.00000, 12: 0.00000, 13: 0.00000, 14: 0.00000, 15: 0.00000, 16: 0.00000, 17: 0.00000, 18: 0.00000,
                19: 0.00000, 20: 0.00000, 21: 0.00000, 22: 0.00000, 23: 0.00000, 24: 0.00000, 25: 0.00000, 26: 0.00000, 27: 0.00000,
                28: 0.00000, 29: 0.00000, 30: 0.00000, 31: 0.00000, 32: 0.00000, 33: 0.00000, 34: 0.00000, 35: 0.00000
    37 |      |  1: 0.00000,  2: 0.00000,  3: 0.00000,  4: 0.00000,  5: 0.00000,  6: 0.00000,  7: 0.00000,  8: 0.00000,  9: 0.00000,
                10: 0.00000, 11: 0.00000, 12: 0.00000, 13: 0.00000, 14: 0.00000, 15: 0.00000, 16: 0.00000, 17: 0.00000, 18: 0.00000,
                19: 0.00000, 20: 0.00000, 21: 0.00000, 22: 0.00000, 23: 0.00000, 24: 0.00000, 25: 0.00000, 26: 0.00000, 27: 0.00000,
                28: 0.00000, 29: 0.00000, 30: 0.00000, 31: 0.00000, 32: 0.00000, 33: 0.00000, 34: 0.00000, 35: 0.00000
    38 |      |  1: 0.00000,  2: 0.00000,  3: 0.00000,  4: 0.00000,  5: 0.00000,  6: 0.00000,  7: 0.00000,  8: 0.00000,  9: 0.00000,
                10: 0.00000, 11: 0.00000, 12: 0.00000, 13: 0.00000, 14: 0.00000, 15: 0.00000, 16: 0.00000, 17: 0.00000, 18: 0.00000,
                19: 0.00000, 20: 0.00000, 21: 0.00000, 22: 0.00000, 23: 0.00000, 24: 0.00000, 25: 0.00000, 26: 0.00000, 27: 0.00000,
                28: 0.00000, 29: 0.00000, 30: 0.00000, 31: 0.00000, 32: 0.00000, 33: 0.00000, 34: 0.00000, 35: 0.00000
    39 |      |  1: 0.00000,  2: 0.00000,  3: 0.00000,  4: 0.00000,  5: 0.00000,  6: 0.00000,  7: 0.00000,  8: 0.00000,  9: 0.00000,
                10: 0.00000, 11: 0.00000, 12: 0.00000, 13: 0.00000, 14: 0.00000, 15: 0.00000, 16: 0.00000, 17: 0.00000, 18: 0.00000,
                19: 0.00000, 20: 0.00000, 21: 0.00000, 22: 0.00000, 23: 0.00000, 24: 0.00000, 25: 0.00000, 26: 0.00000, 27: 0.00000,
                28: 0.00000, 29: 0.00000, 30: 0.00000, 31: 0.00000, 32: 0.00000, 33: 0.00000, 34: 0.00000, 35: 0.00000
    40 |      |  1: 0.00000,  2: 0.00000,  3: 0.00000,  4: 0.00000,  5: 0.00000,  6: 0.00000,  7: 0.00000,  8: 0.00000,  9: 0.00000,
                10: 0.00000, 11: 0.00000, 12: 0.00000, 13: 0.00000, 14: 0.00000, 15: 0.00000, 16: 0.00000, 17: 0.00000, 18: 0.00000,
                19: 0.00000, 20: 0.00000, 21: 0.00000, 22: 0.00000, 23: 0.00000, 24: 0.00000, 25: 0.00000, 26: 0.00000, 27: 0.00000,
                28: 0.00000, 29: 0.00000, 30: 0.00000, 31: 0.00000, 32: 0.00000, 33: 0.00000, 34: 0.00000, 35: 0.00000
    41 |      |  1: 0.00000,  2: 0.00000,  3: 0.00000,  4: 0.00000,  5: 0.00000,  6: 0.00000,  7: 0.00000,  8: 0.00000,  9: 0.00000,
                10: 0.00000, 11: 0.00000, 12: 0.00000, 13: 0.00000, 14: 0.00000, 15: 0.00000, 16: 0.00000, 17: 0.00000, 18: 0.00000,
                19: 0.00000, 20: 0.00000, 21: 0.00000, 22: 0.00000, 23: 0.00000, 24: 0.00000, 25: 0.00000, 26: 0.00000, 27: 0.00000,
                28: 0.00000, 29: 0.00000, 30: 0.00000, 31: 0.00000, 32: 0.00000, 33: 0.00000, 34: 0.00000, 35: 0.00000
    42 |      |  1: 0.00000,  2: 0.00000,  3: 0.00000,  4: 0.00000,  5: 0.00000,  6: 0.00000,  7: 0.00000,  8: 0.00000,  9: 0.00000,
                10: 0.00000, 11: 0.00000, 12: 0.00000, 13: 0.00000, 14: 0.00000, 15: 0.00000, 16: 0.00000, 17: 0.00000, 18: 0.00000,
                19: 0.00000, 20: 0.00000, 21: 0.00000, 22: 0.00000, 23: 0.00000, 24: 0.00000, 25: 0.00000, 26: 0.00000, 27: 0.00000,
                28: 0.00000, 29: 0.00000, 30: 0.00000, 31: 0.00000, 32: 0.00000, 33: 0.00000, 34: 0.00000, 35: 0.00000
    43 |      |  1: 0.00000,  2: 0.00000,  3: 0.00000,  4: 0.00000,  5: 0.00000,  6: 0.00000,  7: 0.00000,  8: 0.00000,  9: 0.00000,
                10: 0.00000, 11: 0.00000, 12: 0.00000, 13: 0.00000, 14: 0.00000, 15: 0.00000, 16: 0.00000, 17: 0.00000, 18: 0.00000,
                19: 0.00000, 20: 0.00000, 21: 0.00000, 22: 0.00000, 23: 0.00000, 24: 0.00000, 25: 0.00000, 26: 0.00000, 27: 0.00000,
                28: 0.00000, 29: 0.00000, 30: 0.00000, 31: 0.00000, 32: 0.00000, 33: 0.00000, 34: 0.00000, 35: 0.00000
    44 |      |  1: 0.00000,  2: 0.00000,  3: 0.00000,  4: 0.00000,  5: 0.00000,  6: 0.00000,  7: 0.00000,  8: 0.00000,  9: 0.00000,
                10: 0.00000, 11: 0.00000, 12: 0.00000, 13: 0.00000, 14: 0.00000, 15: 0.00000, 16: 0.00000, 17: 0.00000, 18: 0.00000,
                19: 0.00000, 20: 0.00000, 21: 0.00000, 22: 0.00000, 23: 0.00000, 24: 0.00000, 25: 0.00000, 26: 0.00000, 27: 0.00000,
                28: 0.00000, 29: 0.00000, 30: 0.00000, 31: 0.00000, 32: 0.00000, 33: 0.00000, 34: 0.00000, 35: 0.00000
    45 |      |  1: 0.00000,  2: 0.00000,  3: 0.00000,  4: 0.00000,  5: 0.00000,  6: 0.00000,  7: 0.00000,  8: 0.00000,  9: 0.00000,
                10: 0.00000, 11: 0.00000, 12: 0.00000, 13: 0.00000, 14: 0.00000, 15: 0.00000, 16: 0.00000, 17: 0.00000, 18: 0.00000,
                19: 0.00000, 20: 0.00000, 21: 0.00000, 22: 0.00000, 23: 0.00000, 24: 0.00000, 25: 0.00000, 26: 0.00000, 27: 0.00000,
                28: 0.00000, 29: 0.00000, 30: 0.00000, 31: 0.00000, 32: 0.00000, 33: 0.00000, 34: 0.00000, 35: 0.00000
    46 |      |  1: 0.00000,  2: 0.00000,  3: 0.00000,  4: 0.00000,  5: 0.00000,  6: 0.00000,  7: 0.00000,  8: 0.00000,  9: 0.00000,
                10: 0.00000, 11: 0.00000, 12: 0.00000, 13: 0.00000, 14: 0.00000, 15: 0.00000, 16: 0.00000, 17: 0.00000, 18: 0.00000,
                19: 0.00000, 20: 0.00000, 21: 0.00000, 22: 0.00000, 23: 0.00000, 24: 0.00000, 25: 0.00000, 26: 0.00000, 27: 0.00000,
                28: 0.00000, 29: 0.00000, 30: 0.00000, 31: 0.00000, 32: 0.00000, 33: 0.00000, 34: 0.00000, 35: 0.00000, 36: 0.00000,
                37: 0.00000, 38: 0.00000, 39: 0.00000, 40: 0.00000, 41: 0.00000, 42: 0.00000, 43: 0.00000, 44: 0.00000, 45: 0.00000
    47 |      |  1: 0.00000,  2: 0.00000,  3: 0.00000,  4: 0.00000,  5: 0.00000,  6: 0.00000,  7: 0.00000,  8: 0.00000,  9: 0.00000,
                10: 0.00000, 11: 0.00000, 12: 0.00000, 13: 0.00000, 14: 0.00000, 15: 0.00000, 16: 0.00000, 17: 0.00000, 18: 0.00000,
                19: 0.00000, 20: 0.00000, 21: 0.00000, 22: 0.00000, 23: 0.00000, 24: 0.00000, 25: 0.00000, 26: 0.00000, 27: 0.00000,
                28: 0.00000, 29: 0.00000, 30: 0.00000, 31: 0.00000, 32: 0.00000, 33: 0.00000, 34: 0.00000, 35: 0.00000, 36: 0.00000,
                37: 0.00000, 38: 0.00000, 39: 0.00000, 40: 0.00000, 41: 0.00000, 42: 0.00000, 43: 0.00000, 44: 0.00000, 45: 0.00000
    48 |      |  1: 0.00000,  2: 0.00000,  3: 0.00000,  4: 0.00000,  5: 0.00000,  6: 0.00000,  7: 0.00000,  8: 0.00000,  9: 0.00000,
                10: 0.00000, 11: 0.00000, 12: 0.00000, 13: 0.00000, 14: 0.00000, 15: 0.00000, 16: 0.00000, 17: 0.00000, 18: 0.00000,
                19: 0.00000, 20: 0.00000, 21: 0.00000, 22: 0.00000, 23: 0.00000, 24: 0.00000, 25: 0.00000, 26: 0.00000, 27: 0.00000,
                28: 0.00000, 29: 0.00000, 30: 0.00000, 31: 0.00000, 32: 0.00000, 33: 0.00000, 34: 0.00000, 35: 0.00000, 36: 0.00000,
                37: 0.00000, 38: 0.00000, 39: 0.00000, 40: 0.00000, 41: 0.00000, 42: 0.00000, 43: 0.00000, 44: 0.00000, 45: 0.00000
    49 |      |  1: 0.00000,  2: 0.00000,  3: 0.00000,  4: 0.00000,  5: 0.00000,  6: 0.00000,  7: 0.00000,  8: 0.00000,  9: 0.00000,
                10: 0.00000, 11: 0.00000, 12: 0.00000, 13: 0.00000, 14: 0.00000, 15: 0.00000, 16: 0.00000, 17: 0.00000, 18: 0.00000,
                19: 0.00000, 20: 0.00000, 21: 0.00000, 22: 0.00000, 23: 0.00000, 24: 0.00000, 25: 0.00000, 26: 0.00000, 27: 0.00000,
                28: 0.00000, 29: 0.00000, 30: 0.00000, 31: 0.00000, 32: 0.00000, 33: 0.00000, 34: 0.00000, 35: 0.00000, 36: 0.00000,
                37: 0.00000, 38: 0.00000, 39: 0.00000, 40: 0.00000, 41: 0.00000, 42: 0.00000, 43: 0.00000, 44: 0.00000, 45: 0.00000
    50 |      |  1: 0.00000,  2: 0.00000,  3: 0.00000,  4: 0.00000,  5: 0.00000,  6: 0.00000,  7: 0.00000,  8: 0.00000,  9: 0.00000,
                10: 0.00000, 11: 0.00000, 12: 0.00000, 13: 0.00000, 14: 0.00000, 15: 0.00000, 16: 0.00000, 17: 0.00000, 18: 0.00000,
                19: 0.00000, 20: 0.00000, 21: 0.00000, 22: 0.00000, 23: 0.00000, 24: 0.00000, 25: 0.00000, 26: 0.00000, 27: 0.00000,
                28: 0.00000, 29: 0.00000, 30: 0.00000, 31: 0.00000, 32: 0.00000, 33: 0.00000, 34: 0.00000, 35: 0.00000, 36: 0.00000,
                37: 0.00000, 38: 0.00000, 39: 0.00000, 40: 0.00000, 41: 0.00000, 42: 0.00000, 43: 0.00000, 44: 0.00000, 45: 0.00000
    51 |      |  1: 0.00000,  2: 0.00000,  3: 0.00000,  4: 0.00000,  5: 0.00000,  6: 0.00000,  7: 0.00000,  8: 0.00000,  9: 0.00000,
                10: 0.00000, 11: 0.00000, 12: 0.00000, 13: 0.00000, 14: 0.00000, 15: 0.00000, 16: 0.00000, 17: 0.00000, 18: 0.00000,
                19: 0.00000, 20: 0.00000, 21: 0.00000, 22: 0.00000, 23: 0.00000, 24: 0.00000, 25: 0.00000, 26: 0.00000, 27: 0.00000,
                28: 0.00000, 29: 0.00000, 30: 0.00000, 31: 0.00000, 32: 0.00000, 33: 0.00000, 34: 0.00000, 35: 0.00000, 36: 0.00000,
                37: 0.00000, 38: 0.00000, 39: 0.00000, 40: 0.00000, 41: 0.00000, 42: 0.00000, 43: 0.00000, 44: 0.00000, 45: 0.00000
    52 |      |  1: 0.00000,  2: 0.00000,  3: 0.00000,  4: 0.00000,  5: 0.00000,  6: 0.00000,  7: 0.00000,  8: 0.00000,  9: 0.00000,
                10: 0.00000, 11: 0.00000, 12: 0.00000, 13: 0.00000, 14: 0.00000, 15: 0.00000, 16: 0.00000, 17: 0.00000, 18: 0.00000,
                19: 0.00000, 20: 0.00000, 21: 0.00000, 22: 0.00000, 23: 0.00000, 24: 0.00000, 25: 0.00000, 26: 0.00000, 27: 0.00000,
                28: 0.00000, 29: 0.00000, 30: 0.00000, 31: 0.00000, 32: 0.00000, 33: 0.00000, 34: 0.00000, 35: 0.00000, 36: 0.00000,
                37: 0.00000, 38: 0.00000, 39: 0.00000, 40: 0.00000, 41: 0.00000, 42: 0.00000, 43: 0.00000, 44: 0.00000, 45: 0.00000
    53 |      |  1: 0.00000,  2: 0.00000,  3: 0.00000,  4: 0.00000,  5: 0.00000,  6: 0.00000,  7: 0.00000,  8: 0.00000,  9: 0.00000,
                10: 0.00000, 11: 0.00000, 12: 0.00000, 13: 0.00000, 14: 0.00000, 15: 0.00000, 16: 0.00000, 17: 0.00000, 18: 0.00000,
                19: 0.00000, 20: 0.00000, 21: 0.00000, 22: 0.00000, 23: 0.00000, 24: 0.00000, 25: 0.00000, 26: 0.00000, 27: 0.00000,
                28: 0.00000, 29: 0.00000, 30: 0.00000, 31: 0.00000, 32: 0.00000, 33: 0.00000, 34: 0.00000, 35: 0.00000, 36: 0.00000,
                37: 0.00000, 38: 0.00000, 39: 0.00000, 40: 0.00000, 41: 0.00000, 42: 0.00000, 43: 0.00000, 44: 0.00000, 45: 0.00000
    54 |      |  1: 0.00000,  2: 0.00000,  3: 0.00000,  4: 0.00000,  5: 0.00000,  6: 0.00000,  7: 0.00000,  8: 0.00000,  9: 0.00000,
                10: 0.00000, 11: 0.00000, 12: 0.00000, 13: 0.00000, 14: 0.00000, 15: 0.00000, 16: 0.00000, 17: 0.00000, 18: 0.00000,
                19: 0.00000, 20: 0.00000, 21: 0.00000, 22: 0.00000, 23: 0.00000, 24: 0.00000, 25: 0.00000, 26: 0.00000, 27: 0.00000,
                28: 0.00000, 29: 0.00000, 30: 0.00000, 31: 0.00000, 32: 0.00000, 33: 0.00000, 34: 0.00000, 35: 0.00000, 36: 0.00000,
                37: 0.00000, 38: 0.00000, 39: 0.00000, 40: 0.00000, 41: 0.00000, 42: 0.00000, 43: 0.00000, 44: 0.00000, 45: 0.00000
    55 |      |  1: 0.00000,  2: 0.00000,  3: 0.00000,  4: 0.00000,  5: 0.00000,  6: 0.00000,  7: 0.00000,  8: 0.00000,  9: 0.00000,
                10: 0.00000, 11: 0.00000, 12: 0.00000, 13: 0.00000, 14: 0.00000, 15: 0.00000, 16: 0.00000, 17: 0.00000, 18: 0.00000,
                19: 0.00000, 20: 0.00000, 21: 0.00000, 22: 0.00000, 23: 0.00000, 24: 0.00000, 25: 0.00000, 26: 0.00000, 27: 0.00000,
                28: 0.00000, 29: 0.00000, 30: 0.00000, 31: 0.00000, 32: 0.00000, 33: 0.00000, 34: 0.00000, 35: 0.00000, 36: 0.00000,
                37: 0.00000, 38: 0.00000, 39: 0.00000, 40: 0.00000, 41: 0.00000, 42: 0.00000, 43: 0.00000, 44: 0.00000, 45: 0.00000
-------|------|---------------------------------------------------------------------------------------------------------------------
