SNNS network definition file V2.1-3D
generated at Wed Jan 27 13:43:32 1993
network name : colorMap
source files : colmap.n
no. of units : 64
no. of connections : 180
no. of unit types : 1
no. of site types : 1


learning function : Std_Backpropagation
update function : Topological_Order



site definition section :

 site name | site function
-----------|---------------
inhibitory | Site_Pi
-----------|---------------



type definition section :

     name |     act func |     out func | sites
----------|--------------|--------------|--------
colorType | Act_Logistic | Out_Identity | inhibitory
----------|--------------|--------------|--------



unit definition section :

   no. |  typeName |                    unitName |    act   |   bias   | st |      position |     act func |     out func | sites
-------|-----------|-----------------------------|----------|----------|----|---------------|--------------|--------------|--------
     1 | colorType |       SchleswigHolstein_red |  1.00000 |          | h  |    1,   8,  0 |              |              | 
     2 | colorType |     SchleswigHolstein_green |  1.00000 |          | h  |    1,   9,  0 |              |              | 
     3 | colorType |      SchleswigHolstein_blue |  1.00000 |          | h  |    1,  10,  0 |              |              | 
     4 | colorType |     SchleswigHolstein_white |  1.00000 |          | h  |    1,  11,  0 |              |              | 
     5 | colorType |   MecklenburgVorpommern_red |  1.00000 |          | h  |    3,   8,  0 |              |              | 
     6 | colorType | MecklenburgVorpommern_green |  1.00000 |          | h  |    3,   9,  0 |              |              | 
     7 | colorType |  MecklenburgVorpommern_blue |  1.00000 |          | h  |    3,  10,  0 |              |              | 
     8 | colorType | MecklenburgVorpommern_white |  1.00000 |          | h  |    3,  11,  0 |              |              | 
     9 | colorType |                 Hamburg_red |  1.00000 |          | h  |    5,   8,  0 |              |              | 
    10 | colorType |               Hamburg_green |  1.00000 |          | h  |    5,   9,  0 |              |              | 
    11 | colorType |                Hamburg_blue |  1.00000 |          | h  |    5,  10,  0 |              |              | 
    12 | colorType |               Hamburg_white |  1.00000 |          | h  |    5,  11,  0 |              |              | 
    13 | colorType |                  Bremen_red |  1.00000 |          | h  |    7,   8,  0 |              |              | 
    14 | colorType |                Bremen_green |  1.00000 |          | h  |    7,   9,  0 |              |              | 
    15 | colorType |                 Bremen_blue |  1.00000 |          | h  |    7,  10,  0 |              |              | 
    16 | colorType |                Bremen_white |  1.00000 |          | h  |    7,  11,  0 |              |              | 
    17 | colorType |           Niedersachsen_red |  1.00000 |          | h  |    9,   8,  0 |              |              | 
    18 | colorType |         Niedersachsen_green |  1.00000 |          | h  |    9,   9,  0 |              |              | 
    19 | colorType |          Niedersachsen_blue |  1.00000 |          | h  |    9,  10,  0 |              |              | 
    20 | colorType |         Niedersachsen_white |  1.00000 |          | h  |    9,  11,  0 |              |              | 
    21 | colorType |                  Berlin_red |  1.00000 |          | h  |   11,   8,  0 |              |              | 
    22 | colorType |                Berlin_green |  1.00000 |          | h  |   11,   9,  0 |              |              | 
    23 | colorType |                 Berlin_blue |  1.00000 |          | h  |   11,  10,  0 |              |              | 
    24 | colorType |                Berlin_white |  1.00000 |          | h  |   11,  11,  0 |              |              | 
    25 | colorType |             Brandenburg_red |  1.00000 |          | h  |   13,   8,  0 |              |              | 
    26 | colorType |           Brandenburg_green |  1.00000 |          | h  |   13,   9,  0 |              |              | 
    27 | colorType |            Brandenburg_blue |  1.00000 |          | h  |   13,  10,  0 |              |              | 
    28 | colorType |           Brandenburg_white |  1.00000 |          | h  |   13,  11,  0 |              |              | 
    29 | colorType |      NordrheinWestfalen_red |  1.00000 |          | h  |   15,   8,  0 |              |              | 
    30 | colorType |    NordrheinWestfalen_green |  1.00000 |          | h  |   15,   9,  0 |              |              | 
    31 | colorType |     NordrheinWestfalen_blue |  1.00000 |          | h  |   15,  10,  0 |              |              | 
    32 | colorType |    NordrheinWestfalen_white |  1.00000 |          | h  |   15,  11,  0 |              |              | 
    33 | colorType |           SachsenAnhalt_red |  1.00000 |          | h  |   17,   8,  0 |              |              | 
    34 | colorType |         SachsenAnhalt_green |  1.00000 |          | h  |   17,   9,  0 |              |              | 
    35 | colorType |          SachsenAnhalt_blue |  1.00000 |          | h  |   17,  10,  0 |              |              | 
    36 | colorType |         SachsenAnhalt_white |  1.00000 |          | h  |   17,  11,  0 |              |              | 
    37 | colorType |                  Hessen_red |  1.00000 |          | h  |   19,   8,  0 |              |              | 
    38 | colorType |                Hessen_green |  1.00000 |          | h  |   19,   9,  0 |              |              | 
    39 | colorType |                 Hessen_blue |  1.00000 |          | h  |   19,  10,  0 |              |              | 
    40 | colorType |                Hessen_white |  1.00000 |          | h  |   19,  11,  0 |              |              | 
    41 | colorType |              Thueringen_red |  1.00000 |          | h  |   21,   8,  0 |              |              | 
    42 | colorType |            Thueringen_green |  1.00000 |          | h  |   21,   9,  0 |              |              | 
    43 | colorType |             Thueringen_blue |  1.00000 |          | h  |   21,  10,  0 |              |              | 
    44 | colorType |            Thueringen_white |  1.00000 |          | h  |   21,  11,  0 |              |              | 
    45 | colorType |                 Sachsen_red |  1.00000 |          | h  |   23,   8,  0 |              |              | 
    46 | colorType |               Sachsen_green |  1.00000 |          | h  |   23,   9,  0 |              |              | 
    47 | colorType |                Sachsen_blue |  1.00000 |          | h  |   23,  10,  0 |              |              | 
    48 | colorType |               Sachsen_white |  1.00000 |          | h  |   23,  11,  0 |              |              | 
    49 | colorType |          RheinlandPfalz_red |  1.00000 |          | h  |   25,   8,  0 |              |              | 
    50 | colorType |        RheinlandPfalz_green |  1.00000 |          | h  |   25,   9,  0 |              |              | 
    51 | colorType |         RheinlandPfalz_blue |  1.00000 |          | h  |   25,  10,  0 |              |              | 
    52 | colorType |        RheinlandPfalz_white |  1.00000 |          | h  |   25,  11,  0 |              |              | 
    53 | colorType |       BadenWuerttemberg_red |  1.00000 |          | h  |   27,   8,  0 |              |              | 
    54 | colorType |     BadenWuerttemberg_green |  1.00000 |          | h  |   27,   9,  0 |              |              | 
    55 | colorType |      BadenWuerttemberg_blue |  1.00000 |          | h  |   27,  10,  0 |              |              | 
    56 | colorType |     BadenWuerttemberg_white |  1.00000 |          | h  |   27,  11,  0 |              |              | 
    57 | colorType |                Saarland_red |  1.00000 |          | h  |   29,   8,  0 |              |              | 
    58 | colorType |              Saarland_green |  1.00000 |          | h  |   29,   9,  0 |              |              | 
    59 | colorType |               Saarland_blue |  1.00000 |          | h  |   29,  10,  0 |              |              | 
    60 | colorType |              Saarland_white |  1.00000 |          | h  |   29,  11,  0 |              |              | 
    61 | colorType |                  Bayern_red |  1.00000 |          | h  |   31,   8,  0 |              |              | 
    62 | colorType |                Bayern_green |  1.00000 |          | h  |   31,   9,  0 |              |              | 
    63 | colorType |                 Bayern_blue |  1.00000 |          | h  |   31,  10,  0 |              |              | 
    64 | colorType |                Bayern_white |  1.00000 |          | h  |   31,  11,  0 |              |              | 
-------|-----------|-----------------------------|----------|----------|----|---------------|--------------|--------------|--------



connection definition section :

target |       site | source:weight
-------|------------|--------
     1 | inhibitory |      2:-1.00000,      3:-1.00000,      4:-1.00000
     2 | inhibitory |      1:-1.00000,      3:-1.00000,      4:-1.00000
     3 | inhibitory |      1:-1.00000,      2:-1.00000,      4:-1.00000
     4 | inhibitory |      1:-1.00000,      2:-1.00000,      3:-1.00000
     5 | inhibitory |      6:-1.00000,      7:-1.00000,      8:-1.00000
     6 | inhibitory |      5:-1.00000,      7:-1.00000,      8:-1.00000
     7 | inhibitory |      5:-1.00000,      6:-1.00000,      8:-1.00000
     8 | inhibitory |      5:-1.00000,      6:-1.00000,      7:-1.00000
     9 | inhibitory |     10:-1.00000,     11:-1.00000,     12:-1.00000
    10 | inhibitory |      9:-1.00000,     11:-1.00000,     12:-1.00000
    11 | inhibitory |      9:-1.00000,     10:-1.00000,     12:-1.00000
    12 | inhibitory |      9:-1.00000,     10:-1.00000,     11:-1.00000
    13 | inhibitory |     14:-1.00000,     15:-1.00000,     16:-1.00000
    14 | inhibitory |     13:-1.00000,     15:-1.00000,     16:-1.00000
    15 | inhibitory |     13:-1.00000,     14:-1.00000,     16:-1.00000
    16 | inhibitory |     13:-1.00000,     14:-1.00000,     15:-1.00000
    17 | inhibitory |     18:-1.00000,     19:-1.00000,     20:-1.00000
    18 | inhibitory |     17:-1.00000,     19:-1.00000,     20:-1.00000
    19 | inhibitory |     17:-1.00000,     18:-1.00000,     20:-1.00000
    20 | inhibitory |     17:-1.00000,     18:-1.00000,     19:-1.00000
    21 | inhibitory |     22:-1.00000,     23:-1.00000,     24:-1.00000
    22 | inhibitory |     21:-1.00000,     23:-1.00000,     24:-1.00000
    23 | inhibitory |     21:-1.00000,     22:-1.00000,     24:-1.00000
    24 | inhibitory |     21:-1.00000,     22:-1.00000,     23:-1.00000
    25 | inhibitory |     26:-1.00000,     27:-1.00000,     28:-1.00000
    26 | inhibitory |     25:-1.00000,     27:-1.00000,     28:-1.00000
    27 | inhibitory |     25:-1.00000,     26:-1.00000,     28:-1.00000
    28 | inhibitory |     25:-1.00000,     26:-1.00000,     27:-1.00000
    29 | inhibitory |     30:-1.00000,     31:-1.00000,     32:-1.00000
    30 | inhibitory |     29:-1.00000,     31:-1.00000,     32:-1.00000
    31 | inhibitory |     29:-1.00000,     30:-1.00000,     32:-1.00000
    32 | inhibitory |     29:-1.00000,     30:-1.00000,     31:-1.00000
    33 | inhibitory |     34:-1.00000,     35:-1.00000,     36:-1.00000
    34 | inhibitory |     33:-1.00000,     35:-1.00000,     36:-1.00000
    35 | inhibitory |     33:-1.00000,     34:-1.00000,     36:-1.00000
    36 | inhibitory |     33:-1.00000,     34:-1.00000,     35:-1.00000
    37 | inhibitory |     38:-1.00000,     39:-1.00000,     40:-1.00000
    38 | inhibitory |     37:-1.00000,     39:-1.00000,     40:-1.00000
    39 | inhibitory |     37:-1.00000,     38:-1.00000,     40:-1.00000
    40 | inhibitory |     37:-1.00000,     38:-1.00000,     39:-1.00000
    41 | inhibitory |     42:-1.00000,     43:-1.00000,     44:-1.00000
    42 | inhibitory |     41:-1.00000,     43:-1.00000,     44:-1.00000
    43 | inhibitory |     41:-1.00000,     42:-1.00000,     44:-1.00000
    44 | inhibitory |     41:-1.00000,     42:-1.00000,     43:-1.00000
    45 | inhibitory |     46:-1.00000,     47:-1.00000,     48:-1.00000
    46 | inhibitory |     45:-1.00000,     47:-1.00000,     48:-1.00000
    47 | inhibitory |     45:-1.00000,     46:-1.00000,     48:-1.00000
    48 | inhibitory |     45:-1.00000,     46:-1.00000,     47:-1.00000
    49 | inhibitory |     50:-1.00000,     51:-1.00000,     52:-1.00000
    50 | inhibitory |     49:-1.00000,     51:-1.00000,     52:-1.00000
    51 | inhibitory |     49:-1.00000,     50:-1.00000,     52:-1.00000
    52 | inhibitory |     49:-1.00000,     50:-1.00000,     51:-1.00000
    53 | inhibitory |     54:-1.00000,     55:-1.00000,     56:-1.00000
    54 | inhibitory |     53:-1.00000,     55:-1.00000,     56:-1.00000
    55 | inhibitory |     53:-1.00000,     54:-1.00000,     56:-1.00000
    56 | inhibitory |     53:-1.00000,     54:-1.00000,     55:-1.00000
    57 | inhibitory |     58:-1.00000,     59:-1.00000,     60:-1.00000
    58 | inhibitory |     57:-1.00000,     59:-1.00000,     60:-1.00000
    59 | inhibitory |     57:-1.00000,     58:-1.00000,     60:-1.00000
    60 | inhibitory |     57:-1.00000,     58:-1.00000,     59:-1.00000
    61 | inhibitory |     62:-1.00000,     63:-1.00000,     64:-1.00000
    62 | inhibitory |     61:-1.00000,     63:-1.00000,     64:-1.00000
    63 | inhibitory |     61:-1.00000,     62:-1.00000,     64:-1.00000
    64 | inhibitory |     61:-1.00000,     62:-1.00000,     63:-1.00000
-------|------------|--------
