SNNS network definition file V2.1-3D
generated at Wed Jan 27 13:44:52 1993
network name : recogLetter
source files : letter.n
no. of units : 71
no. of connections : 1350
no. of unit types : 1
no. of site types : 0


learning function : Std_Backpropagation
update function : Topological_Order



type definition section :

    name |     act func |        out func | sites
---------|--------------|-----------------|--------
 stdUnit | Act_Logistic | Out_Threshold05 | 
---------|--------------|-----------------|--------



unit definition section :

   no. | typeName | unitName |    act   |   bias   | st |      position |     act func |        out func | sites
-------|----------|----------|----------|----------|----|---------------|--------------|-----------------|--------
     1 |  stdUnit |          | -0.61366 |          | i  |    0,   4,  0 |              |                 | 
     2 |  stdUnit |          |  0.55991 |          | i  |    1,   4,  0 |              |                 | 
     3 |  stdUnit |          | -0.76022 |          | i  |    2,   4,  0 |              |                 | 
     4 |  stdUnit |          |  0.10337 |          | i  |    3,   4,  0 |              |                 | 
     5 |  stdUnit |          |  0.81001 |          | i  |    4,   4,  0 |              |                 | 
     6 |  stdUnit |          |  0.11503 |          | i  |    0,   5,  0 |              |                 | 
     7 |  stdUnit |          |  0.44807 |          | i  |    1,   5,  0 |              |                 | 
     8 |  stdUnit |          | -0.17355 |          | i  |    2,   5,  0 |              |                 | 
     9 |  stdUnit |          | -0.29246 |          | i  |    3,   5,  0 |              |                 | 
    10 |  stdUnit |          | -0.71467 |          | i  |    4,   5,  0 |              |                 | 
    11 |  stdUnit |          |  0.42198 |          | i  |    0,   6,  0 |              |                 | 
    12 |  stdUnit |          |  0.30555 |          | i  |    1,   6,  0 |              |                 | 
    13 |  stdUnit |          |  0.79804 |          | i  |    2,   6,  0 |              |                 | 
    14 |  stdUnit |          | -0.53703 |          | i  |    3,   6,  0 |              |                 | 
    15 |  stdUnit |          |  0.52419 |          | i  |    4,   6,  0 |              |                 | 
    16 |  stdUnit |          |  0.60726 |          | i  |    0,   7,  0 |              |                 | 
    17 |  stdUnit |          | -0.80426 |          | i  |    1,   7,  0 |              |                 | 
    18 |  stdUnit |          |  0.40809 |          | i  |    2,   7,  0 |              |                 | 
    19 |  stdUnit |          |  0.75013 |          | i  |    3,   7,  0 |              |                 | 
    20 |  stdUnit |          |  0.68394 |          | i  |    4,   7,  0 |              |                 | 
    21 |  stdUnit |          | -0.74969 |          | i  |    0,   8,  0 |              |                 | 
    22 |  stdUnit |          | -0.11080 |          | i  |    1,   8,  0 |              |                 | 
    23 |  stdUnit |          |  0.77320 |          | i  |    2,   8,  0 |              |                 | 
    24 |  stdUnit |          | -0.92125 |          | i  |    3,   8,  0 |              |                 | 
    25 |  stdUnit |          |  0.64223 |          | i  |    4,   8,  0 |              |                 | 
    26 |  stdUnit |          |  0.99131 |          | i  |    0,   9,  0 |              |                 | 
    27 |  stdUnit |          | -0.69884 |          | i  |    1,   9,  0 |              |                 | 
    28 |  stdUnit |          |  0.64613 |          | i  |    2,   9,  0 |              |                 | 
    29 |  stdUnit |          | -0.87103 |          | i  |    3,   9,  0 |              |                 | 
    30 |  stdUnit |          | -0.57869 |          | i  |    4,   9,  0 |              |                 | 
    31 |  stdUnit |          | -0.87971 |          | i  |    0,  10,  0 |              |                 | 
    32 |  stdUnit |          |  0.91407 |          | i  |    1,  10,  0 |              |                 | 
    33 |  stdUnit |          | -0.39647 |          | i  |    2,  10,  0 |              |                 | 
    34 |  stdUnit |          |  0.74068 |          | i  |    3,  10,  0 |              |                 | 
    35 |  stdUnit |          |  0.22025 |          | i  |    4,  10,  0 |              |                 | 
    36 |  stdUnit |          |  0.27212 |          | h  |    8,   2,  0 |              |                 | 
    37 |  stdUnit |          | -0.34200 |          | h  |    8,   3,  0 |              |                 | 
    38 |  stdUnit |          |  0.01419 |          | h  |    8,   4,  0 |              |                 | 
    39 |  stdUnit |          | -0.07393 |          | h  |    8,   5,  0 |              |                 | 
    40 |  stdUnit |          |  0.54065 |          | h  |    8,   6,  0 |              |                 | 
    41 |  stdUnit |          | -0.25365 |          | h  |    8,   7,  0 |              |                 | 
    42 |  stdUnit |          | -0.83886 |          | h  |    8,   8,  0 |              |                 | 
    43 |  stdUnit |          | -0.11617 |          | h  |    8,   9,  0 |              |                 | 
    44 |  stdUnit |          |  0.39821 |          | h  |    8,  10,  0 |              |                 | 
    45 |  stdUnit |          | -0.42859 |          | h  |    8,  11,  0 |              |                 | 
    46 |  stdUnit |        A | -0.35049 |          | o  |   12,   1,  0 |              |                 | 
    47 |  stdUnit |        B | -0.67214 |          | o  |   13,   1,  0 |              |                 | 
    48 |  stdUnit |        C | -0.36756 |          | o  |   12,   2,  0 |              |                 | 
    49 |  stdUnit |        D | -0.60284 |          | o  |   13,   2,  0 |              |                 | 
    50 |  stdUnit |        E | -0.07312 |          | o  |   12,   3,  0 |              |                 | 
    51 |  stdUnit |        F |  0.48262 |          | o  |   13,   3,  0 |              |                 | 
    52 |  stdUnit |        G |  0.03553 |          | o  |   12,   4,  0 |              |                 | 
    53 |  stdUnit |        H | -0.31805 |          | o  |   13,   4,  0 |              |                 | 
    54 |  stdUnit |        I | -0.98677 |          | o  |   12,   5,  0 |              |                 | 
    55 |  stdUnit |        J | -0.19137 |          | o  |   13,   5,  0 |              |                 | 
    56 |  stdUnit |        K |  0.06648 |          | o  |   12,   6,  0 |              |                 | 
    57 |  stdUnit |        L | -0.53182 |          | o  |   13,   6,  0 |              |                 | 
    58 |  stdUnit |        M |  0.39782 |          | o  |   12,   7,  0 |              |                 | 
    59 |  stdUnit |        N | -0.41654 |          | o  |   13,   7,  0 |              |                 | 
    60 |  stdUnit |        O | -0.98815 |          | o  |   12,   8,  0 |              |                 | 
    61 |  stdUnit |        P | -0.76391 |          | o  |   13,   8,  0 |              |                 | 
    62 |  stdUnit |        Q |  0.22435 |          | o  |   12,   9,  0 |              |                 | 
    63 |  stdUnit |        R |  0.91648 |          | o  |   13,   9,  0 |              |                 | 
    64 |  stdUnit |        S | -0.56353 |          | o  |   12,  10,  0 |              |                 | 
    65 |  stdUnit |        T |  0.97240 |          | o  |   13,  10,  0 |              |                 | 
    66 |  stdUnit |        U | -0.31373 |          | o  |   12,  11,  0 |              |                 | 
    67 |  stdUnit |        V |  0.53573 |          | o  |   13,  11,  0 |              |                 | 
    68 |  stdUnit |        W | -0.85087 |          | o  |   12,  12,  0 |              |                 | 
    69 |  stdUnit |        X |  0.71793 |          | o  |   13,  12,  0 |              |                 | 
    70 |  stdUnit |        Y | -0.40990 |          | o  |   12,  13,  0 |              |                 | 
    71 |  stdUnit |        Z |  0.77104 |          | o  |   13,  13,  0 |              |                 | 
-------|----------|----------|----------|----------|----|---------------|--------------|-----------------|--------



connection definition section :

target |      site | source:weight
-------|-----------|--------
    36 |           |     37: 0.00000,     38: 0.00000,     39: 0.00000,     40: 0.00000,
                         41: 0.00000,     42: 0.00000,     43: 0.00000,     44: 0.00000,
                         45: 0.00000,      1: 1.00000,      2: 1.00000,      3: 1.00000,
                           4: 1.00000,      5: 1.00000,      6: 1.00000,      7: 1.00000,
                           8: 1.00000,      9: 1.00000,     10: 1.00000,     20: 1.00000,
                          30: 1.00000,     11: 1.00000,     21: 1.00000,     31: 1.00000,
                          12: 1.00000,     22: 1.00000,     32: 1.00000,     13: 1.00000,
                          23: 1.00000,     33: 1.00000,     14: 1.00000,     24: 1.00000,
                          34: 1.00000,     15: 1.00000,     25: 1.00000,     35: 1.00000,
                          16: 1.00000,     26: 1.00000,     17: 1.00000,     27: 1.00000,
                          18: 1.00000,     28: 1.00000,     19: 1.00000,     29: 1.00000
    37 |           |     36: 0.00000,     38: 0.00000,     39: 0.00000,     40: 0.00000,
                         41: 0.00000,     42: 0.00000,     43: 0.00000,     44: 0.00000,
                         45: 0.00000,      1: 1.00000,      2: 1.00000,      3: 1.00000,
                           4: 1.00000,      5: 1.00000,      6: 1.00000,      7: 1.00000,
                           8: 1.00000,      9: 1.00000,     10: 1.00000,     20: 1.00000,
                          30: 1.00000,     11: 1.00000,     21: 1.00000,     31: 1.00000,
                          12: 1.00000,     22: 1.00000,     32: 1.00000,     13: 1.00000,
                          23: 1.00000,     33: 1.00000,     14: 1.00000,     24: 1.00000,
                          34: 1.00000,     15: 1.00000,     25: 1.00000,     35: 1.00000,
                          16: 1.00000,     26: 1.00000,     17: 1.00000,     27: 1.00000,
                          18: 1.00000,     28: 1.00000,     19: 1.00000,     29: 1.00000
    38 |           |     36: 0.00000,     37: 0.00000,     39: 0.00000,     40: 0.00000,
                         41: 0.00000,     42: 0.00000,     43: 0.00000,     44: 0.00000,
                         45: 0.00000,      1: 1.00000,      2: 1.00000,      3: 1.00000,
                           4: 1.00000,      5: 1.00000,      6: 1.00000,      7: 1.00000,
                           8: 1.00000,      9: 1.00000,     10: 1.00000,     20: 1.00000,
                          30: 1.00000,     11: 1.00000,     21: 1.00000,     31: 1.00000,
                          12: 1.00000,     22: 1.00000,     32: 1.00000,     13: 1.00000,
                          23: 1.00000,     33: 1.00000,     14: 1.00000,     24: 1.00000,
                          34: 1.00000,     15: 1.00000,     25: 1.00000,     35: 1.00000,
                          16: 1.00000,     26: 1.00000,     17: 1.00000,     27: 1.00000,
                          18: 1.00000,     28: 1.00000,     19: 1.00000,     29: 1.00000
    39 |           |     36: 0.00000,     37: 0.00000,     38: 0.00000,     40: 0.00000,
                         41: 0.00000,     42: 0.00000,     43: 0.00000,     44: 0.00000,
                         45: 0.00000,      1: 1.00000,      2: 1.00000,      3: 1.00000,
                           4: 1.00000,      5: 1.00000,      6: 1.00000,      7: 1.00000,
                           8: 1.00000,      9: 1.00000,     10: 1.00000,     20: 1.00000,
                          30: 1.00000,     11: 1.00000,     21: 1.00000,     31: 1.00000,
                          12: 1.00000,     22: 1.00000,     32: 1.00000,     13: 1.00000,
                          23: 1.00000,     33: 1.00000,     14: 1.00000,     24: 1.00000,
                          34: 1.00000,     15: 1.00000,     25: 1.00000,     35: 1.00000,
                          16: 1.00000,     26: 1.00000,     17: 1.00000,     27: 1.00000,
                          18: 1.00000,     28: 1.00000,     19: 1.00000,     29: 1.00000
    40 |           |     36: 0.00000,     37: 0.00000,     38: 0.00000,     39: 0.00000,
                         41: 0.00000,     42: 0.00000,     43: 0.00000,     44: 0.00000,
                         45: 0.00000,      1: 1.00000,      2: 1.00000,      3: 1.00000,
                           4: 1.00000,      5: 1.00000,      6: 1.00000,      7: 1.00000,
                           8: 1.00000,      9: 1.00000,     10: 1.00000,     20: 1.00000,
                          30: 1.00000,     11: 1.00000,     21: 1.00000,     31: 1.00000,
                          12: 1.00000,     22: 1.00000,     32: 1.00000,     13: 1.00000,
                          23: 1.00000,     33: 1.00000,     14: 1.00000,     24: 1.00000,
                          34: 1.00000,     15: 1.00000,     25: 1.00000,     35: 1.00000,
                          16: 1.00000,     26: 1.00000,     17: 1.00000,     27: 1.00000,
                          18: 1.00000,     28: 1.00000,     19: 1.00000,     29: 1.00000
    41 |           |     36: 0.00000,     37: 0.00000,     38: 0.00000,     39: 0.00000,
                         40: 0.00000,     42: 0.00000,     43: 0.00000,     44: 0.00000,
                         45: 0.00000,      1: 1.00000,      2: 1.00000,      3: 1.00000,
                           4: 1.00000,      5: 1.00000,      6: 1.00000,      7: 1.00000,
                           8: 1.00000,      9: 1.00000,     10: 1.00000,     20: 1.00000,
                          30: 1.00000,     11: 1.00000,     21: 1.00000,     31: 1.00000,
                          12: 1.00000,     22: 1.00000,     32: 1.00000,     13: 1.00000,
                          23: 1.00000,     33: 1.00000,     14: 1.00000,     24: 1.00000,
                          34: 1.00000,     15: 1.00000,     25: 1.00000,     35: 1.00000,
                          16: 1.00000,     26: 1.00000,     17: 1.00000,     27: 1.00000,
                          18: 1.00000,     28: 1.00000,     19: 1.00000,     29: 1.00000
    42 |           |     36: 0.00000,     37: 0.00000,     38: 0.00000,     39: 0.00000,
                         40: 0.00000,     41: 0.00000,     43: 0.00000,     44: 0.00000,
                         45: 0.00000,      1: 1.00000,      2: 1.00000,      3: 1.00000,
                           4: 1.00000,      5: 1.00000,      6: 1.00000,      7: 1.00000,
                           8: 1.00000,      9: 1.00000,     10: 1.00000,     20: 1.00000,
                          30: 1.00000,     11: 1.00000,     21: 1.00000,     31: 1.00000,
                          12: 1.00000,     22: 1.00000,     32: 1.00000,     13: 1.00000,
                          23: 1.00000,     33: 1.00000,     14: 1.00000,     24: 1.00000,
                          34: 1.00000,     15: 1.00000,     25: 1.00000,     35: 1.00000,
                          16: 1.00000,     26: 1.00000,     17: 1.00000,     27: 1.00000,
                          18: 1.00000,     28: 1.00000,     19: 1.00000,     29: 1.00000
    43 |           |     36: 0.00000,     37: 0.00000,     38: 0.00000,     39: 0.00000,
                         40: 0.00000,     41: 0.00000,     42: 0.00000,     44: 0.00000,
                         45: 0.00000,      1: 1.00000,      2: 1.00000,      3: 1.00000,
                           4: 1.00000,      5: 1.00000,      6: 1.00000,      7: 1.00000,
                           8: 1.00000,      9: 1.00000,     10: 1.00000,     20: 1.00000,
                          30: 1.00000,     11: 1.00000,     21: 1.00000,     31: 1.00000,
                          12: 1.00000,     22: 1.00000,     32: 1.00000,     13: 1.00000,
                          23: 1.00000,     33: 1.00000,     14: 1.00000,     24: 1.00000,
                          34: 1.00000,     15: 1.00000,     25: 1.00000,     35: 1.00000,
                          16: 1.00000,     26: 1.00000,     17: 1.00000,     27: 1.00000,
                          18: 1.00000,     28: 1.00000,     19: 1.00000,     29: 1.00000
    44 |           |     36: 0.00000,     37: 0.00000,     38: 0.00000,     39: 0.00000,
                         40: 0.00000,     41: 0.00000,     42: 0.00000,     43: 0.00000,
                         45: 0.00000,      1: 1.00000,      2: 1.00000,      3: 1.00000,
                           4: 1.00000,      5: 1.00000,      6: 1.00000,      7: 1.00000,
                           8: 1.00000,      9: 1.00000,     10: 1.00000,     20: 1.00000,
                          30: 1.00000,     11: 1.00000,     21: 1.00000,     31: 1.00000,
                          12: 1.00000,     22: 1.00000,     32: 1.00000,     13: 1.00000,
                          23: 1.00000,     33: 1.00000,     14: 1.00000,     24: 1.00000,
                          34: 1.00000,     15: 1.00000,     25: 1.00000,     35: 1.00000,
                          16: 1.00000,     26: 1.00000,     17: 1.00000,     27: 1.00000,
                          18: 1.00000,     28: 1.00000,     19: 1.00000,     29: 1.00000
    45 |           |     36: 0.00000,     37: 0.00000,     38: 0.00000,     39: 0.00000,
                         40: 0.00000,     41: 0.00000,     42: 0.00000,     43: 0.00000,
                         44: 0.00000,      1: 1.00000,      2: 1.00000,      3: 1.00000,
                           4: 1.00000,      5: 1.00000,      6: 1.00000,      7: 1.00000,
                           8: 1.00000,      9: 1.00000,     10: 1.00000,     20: 1.00000,
                          30: 1.00000,     11: 1.00000,     21: 1.00000,     31: 1.00000,
                          12: 1.00000,     22: 1.00000,     32: 1.00000,     13: 1.00000,
                          23: 1.00000,     33: 1.00000,     14: 1.00000,     24: 1.00000,
                          34: 1.00000,     15: 1.00000,     25: 1.00000,     35: 1.00000,
                          16: 1.00000,     26: 1.00000,     17: 1.00000,     27: 1.00000,
                          18: 1.00000,     28: 1.00000,     19: 1.00000,     29: 1.00000
    46 |           |     47:-1.00000,     48:-1.00000,     49:-1.00000,     50:-1.00000,
                         51:-1.00000,     52:-1.00000,     53:-1.00000,     54:-1.00000,
                         55:-1.00000,     56:-1.00000,     57:-1.00000,     58:-1.00000,
                         59:-1.00000,     60:-1.00000,     61:-1.00000,     62:-1.00000,
                         63:-1.00000,     64:-1.00000,     65:-1.00000,     66:-1.00000,
                         67:-1.00000,     68:-1.00000,     69:-1.00000,     70:-1.00000,
                         71:-1.00000,     40: 1.00000,     41: 1.00000,     42: 1.00000,
                          43: 1.00000,     44: 1.00000,     45: 1.00000,     36: 1.00000,
                          37: 1.00000,     38: 1.00000,     39: 1.00000
    47 |           |     46:-1.00000,     48:-1.00000,     49:-1.00000,     50:-1.00000,
                         51:-1.00000,     52:-1.00000,     53:-1.00000,     54:-1.00000,
                         55:-1.00000,     56:-1.00000,     57:-1.00000,     58:-1.00000,
                         59:-1.00000,     60:-1.00000,     61:-1.00000,     62:-1.00000,
                         63:-1.00000,     64:-1.00000,     65:-1.00000,     66:-1.00000,
                         67:-1.00000,     68:-1.00000,     69:-1.00000,     70:-1.00000,
                         71:-1.00000,     40: 1.00000,     41: 1.00000,     42: 1.00000,
                          43: 1.00000,     44: 1.00000,     45: 1.00000,     36: 1.00000,
                          37: 1.00000,     38: 1.00000,     39: 1.00000
    48 |           |     46:-1.00000,     47:-1.00000,     49:-1.00000,     50:-1.00000,
                         51:-1.00000,     52:-1.00000,     53:-1.00000,     54:-1.00000,
                         55:-1.00000,     56:-1.00000,     57:-1.00000,     58:-1.00000,
                         59:-1.00000,     60:-1.00000,     61:-1.00000,     62:-1.00000,
                         63:-1.00000,     64:-1.00000,     65:-1.00000,     66:-1.00000,
                         67:-1.00000,     68:-1.00000,     69:-1.00000,     70:-1.00000,
                         71:-1.00000,     40: 1.00000,     41: 1.00000,     42: 1.00000,
                          43: 1.00000,     44: 1.00000,     45: 1.00000,     36: 1.00000,
                          37: 1.00000,     38: 1.00000,     39: 1.00000
    49 |           |     46:-1.00000,     47:-1.00000,     48:-1.00000,     50:-1.00000,
                         51:-1.00000,     52:-1.00000,     53:-1.00000,     54:-1.00000,
                         55:-1.00000,     56:-1.00000,     57:-1.00000,     58:-1.00000,
                         59:-1.00000,     60:-1.00000,     61:-1.00000,     62:-1.00000,
                         63:-1.00000,     64:-1.00000,     65:-1.00000,     66:-1.00000,
                         67:-1.00000,     68:-1.00000,     69:-1.00000,     70:-1.00000,
                         71:-1.00000,     40: 1.00000,     41: 1.00000,     42: 1.00000,
                          43: 1.00000,     44: 1.00000,     45: 1.00000,     36: 1.00000,
                          37: 1.00000,     38: 1.00000,     39: 1.00000
    50 |           |     46:-1.00000,     47:-1.00000,     48:-1.00000,     49:-1.00000,
                         51:-1.00000,     52:-1.00000,     53:-1.00000,     54:-1.00000,
                         55:-1.00000,     56:-1.00000,     57:-1.00000,     58:-1.00000,
                         59:-1.00000,     60:-1.00000,     61:-1.00000,     62:-1.00000,
                         63:-1.00000,     64:-1.00000,     65:-1.00000,     66:-1.00000,
                         67:-1.00000,     68:-1.00000,     69:-1.00000,     70:-1.00000,
                         71:-1.00000,     40: 1.00000,     41: 1.00000,     42: 1.00000,
                          43: 1.00000,     44: 1.00000,     45: 1.00000,     36: 1.00000,
                          37: 1.00000,     38: 1.00000,     39: 1.00000
    51 |           |     46:-1.00000,     47:-1.00000,     48:-1.00000,     49:-1.00000,
                         50:-1.00000,     52:-1.00000,     53:-1.00000,     54:-1.00000,
                         55:-1.00000,     56:-1.00000,     57:-1.00000,     58:-1.00000,
                         59:-1.00000,     60:-1.00000,     61:-1.00000,     62:-1.00000,
                         63:-1.00000,     64:-1.00000,     65:-1.00000,     66:-1.00000,
                         67:-1.00000,     68:-1.00000,     69:-1.00000,     70:-1.00000,
                         71:-1.00000,     40: 1.00000,     41: 1.00000,     42: 1.00000,
                          43: 1.00000,     44: 1.00000,     45: 1.00000,     36: 1.00000,
                          37: 1.00000,     38: 1.00000,     39: 1.00000
    52 |           |     46:-1.00000,     47:-1.00000,     48:-1.00000,     49:-1.00000,
                         50:-1.00000,     51:-1.00000,     53:-1.00000,     54:-1.00000,
                         55:-1.00000,     56:-1.00000,     57:-1.00000,     58:-1.00000,
                         59:-1.00000,     60:-1.00000,     61:-1.00000,     62:-1.00000,
                         63:-1.00000,     64:-1.00000,     65:-1.00000,     66:-1.00000,
                         67:-1.00000,     68:-1.00000,     69:-1.00000,     70:-1.00000,
                         71:-1.00000,     40: 1.00000,     41: 1.00000,     42: 1.00000,
                          43: 1.00000,     44: 1.00000,     45: 1.00000,     36: 1.00000,
                          37: 1.00000,     38: 1.00000,     39: 1.00000
    53 |           |     46:-1.00000,     47:-1.00000,     48:-1.00000,     49:-1.00000,
                         50:-1.00000,     51:-1.00000,     52:-1.00000,     54:-1.00000,
                         55:-1.00000,     56:-1.00000,     57:-1.00000,     58:-1.00000,
                         59:-1.00000,     60:-1.00000,     61:-1.00000,     62:-1.00000,
                         63:-1.00000,     64:-1.00000,     65:-1.00000,     66:-1.00000,
                         67:-1.00000,     68:-1.00000,     69:-1.00000,     70:-1.00000,
                         71:-1.00000,     40: 1.00000,     41: 1.00000,     42: 1.00000,
                          43: 1.00000,     44: 1.00000,     45: 1.00000,     36: 1.00000,
                          37: 1.00000,     38: 1.00000,     39: 1.00000
    54 |           |     46:-1.00000,     47:-1.00000,     48:-1.00000,     49:-1.00000,
                         50:-1.00000,     51:-1.00000,     52:-1.00000,     53:-1.00000,
                         55:-1.00000,     56:-1.00000,     57:-1.00000,     58:-1.00000,
                         59:-1.00000,     60:-1.00000,     61:-1.00000,     62:-1.00000,
                         63:-1.00000,     64:-1.00000,     65:-1.00000,     66:-1.00000,
                         67:-1.00000,     68:-1.00000,     69:-1.00000,     70:-1.00000,
                         71:-1.00000,     40: 1.00000,     41: 1.00000,     42: 1.00000,
                          43: 1.00000,     44: 1.00000,     45: 1.00000,     36: 1.00000,
                          37: 1.00000,     38: 1.00000,     39: 1.00000
    55 |           |     46:-1.00000,     47:-1.00000,     48:-1.00000,     49:-1.00000,
                         50:-1.00000,     51:-1.00000,     52:-1.00000,     53:-1.00000,
                         54:-1.00000,     56:-1.00000,     57:-1.00000,     58:-1.00000,
                         59:-1.00000,     60:-1.00000,     61:-1.00000,     62:-1.00000,
                         63:-1.00000,     64:-1.00000,     65:-1.00000,     66:-1.00000,
                         67:-1.00000,     68:-1.00000,     69:-1.00000,     70:-1.00000,
                         71:-1.00000,     40: 1.00000,     41: 1.00000,     42: 1.00000,
                          43: 1.00000,     44: 1.00000,     45: 1.00000,     36: 1.00000,
                          37: 1.00000,     38: 1.00000,     39: 1.00000
    56 |           |     46:-1.00000,     47:-1.00000,     48:-1.00000,     49:-1.00000,
                         50:-1.00000,     51:-1.00000,     52:-1.00000,     53:-1.00000,
                         54:-1.00000,     55:-1.00000,     57:-1.00000,     58:-1.00000,
                         59:-1.00000,     60:-1.00000,     61:-1.00000,     62:-1.00000,
                         63:-1.00000,     64:-1.00000,     65:-1.00000,     66:-1.00000,
                         67:-1.00000,     68:-1.00000,     69:-1.00000,     70:-1.00000,
                         71:-1.00000,     40: 1.00000,     41: 1.00000,     42: 1.00000,
                          43: 1.00000,     44: 1.00000,     45: 1.00000,     36: 1.00000,
                          37: 1.00000,     38: 1.00000,     39: 1.00000
    57 |           |     46:-1.00000,     47:-1.00000,     48:-1.00000,     49:-1.00000,
                         50:-1.00000,     51:-1.00000,     52:-1.00000,     53:-1.00000,
                         54:-1.00000,     55:-1.00000,     56:-1.00000,     58:-1.00000,
                         59:-1.00000,     60:-1.00000,     61:-1.00000,     62:-1.00000,
                         63:-1.00000,     64:-1.00000,     65:-1.00000,     66:-1.00000,
                         67:-1.00000,     68:-1.00000,     69:-1.00000,     70:-1.00000,
                         71:-1.00000,     40: 1.00000,     41: 1.00000,     42: 1.00000,
                          43: 1.00000,     44: 1.00000,     45: 1.00000,     36: 1.00000,
                          37: 1.00000,     38: 1.00000,     39: 1.00000
    58 |           |     46:-1.00000,     47:-1.00000,     48:-1.00000,     49:-1.00000,
                         50:-1.00000,     51:-1.00000,     52:-1.00000,     53:-1.00000,
                         54:-1.00000,     55:-1.00000,     56:-1.00000,     57:-1.00000,
                         59:-1.00000,     60:-1.00000,     61:-1.00000,     62:-1.00000,
                         63:-1.00000,     64:-1.00000,     65:-1.00000,     66:-1.00000,
                         67:-1.00000,     68:-1.00000,     69:-1.00000,     70:-1.00000,
                         71:-1.00000,     40: 1.00000,     41: 1.00000,     42: 1.00000,
                          43: 1.00000,     44: 1.00000,     45: 1.00000,     36: 1.00000,
                          37: 1.00000,     38: 1.00000,     39: 1.00000
    59 |           |     46:-1.00000,     47:-1.00000,     48:-1.00000,     49:-1.00000,
                         50:-1.00000,     51:-1.00000,     52:-1.00000,     53:-1.00000,
                         54:-1.00000,     55:-1.00000,     56:-1.00000,     57:-1.00000,
                         58:-1.00000,     60:-1.00000,     61:-1.00000,     62:-1.00000,
                         63:-1.00000,     64:-1.00000,     65:-1.00000,     66:-1.00000,
                         67:-1.00000,     68:-1.00000,     69:-1.00000,     70:-1.00000,
                         71:-1.00000,     40: 1.00000,     41: 1.00000,     42: 1.00000,
                          43: 1.00000,     44: 1.00000,     45: 1.00000,     36: 1.00000,
                          37: 1.00000,     38: 1.00000,     39: 1.00000
    60 |           |     46:-1.00000,     47:-1.00000,     48:-1.00000,     49:-1.00000,
                         50:-1.00000,     51:-1.00000,     52:-1.00000,     53:-1.00000,
                         54:-1.00000,     55:-1.00000,     56:-1.00000,     57:-1.00000,
                         58:-1.00000,     59:-1.00000,     61:-1.00000,     62:-1.00000,
                         63:-1.00000,     64:-1.00000,     65:-1.00000,     66:-1.00000,
                         67:-1.00000,     68:-1.00000,     69:-1.00000,     70:-1.00000,
                         71:-1.00000,     40: 1.00000,     41: 1.00000,     42: 1.00000,
                          43: 1.00000,     44: 1.00000,     45: 1.00000,     36: 1.00000,
                          37: 1.00000,     38: 1.00000,     39: 1.00000
    61 |           |     46:-1.00000,     47:-1.00000,     48:-1.00000,     49:-1.00000,
                         50:-1.00000,     51:-1.00000,     52:-1.00000,     53:-1.00000,
                         54:-1.00000,     55:-1.00000,     56:-1.00000,     57:-1.00000,
                         58:-1.00000,     59:-1.00000,     60:-1.00000,     62:-1.00000,
                         63:-1.00000,     64:-1.00000,     65:-1.00000,     66:-1.00000,
                         67:-1.00000,     68:-1.00000,     69:-1.00000,     70:-1.00000,
                         71:-1.00000,     40: 1.00000,     41: 1.00000,     42: 1.00000,
                          43: 1.00000,     44: 1.00000,     45: 1.00000,     36: 1.00000,
                          37: 1.00000,     38: 1.00000,     39: 1.00000
    62 |           |     46:-1.00000,     47:-1.00000,     48:-1.00000,     49:-1.00000,
                         50:-1.00000,     51:-1.00000,     52:-1.00000,     53:-1.00000,
                         54:-1.00000,     55:-1.00000,     56:-1.00000,     57:-1.00000,
                         58:-1.00000,     59:-1.00000,     60:-1.00000,     61:-1.00000,
                         63:-1.00000,     64:-1.00000,     65:-1.00000,     66:-1.00000,
                         67:-1.00000,     68:-1.00000,     69:-1.00000,     70:-1.00000,
                         71:-1.00000,     40: 1.00000,     41: 1.00000,     42: 1.00000,
                          43: 1.00000,     44: 1.00000,     45: 1.00000,     36: 1.00000,
                          37: 1.00000,     38: 1.00000,     39: 1.00000
    63 |           |     46:-1.00000,     47:-1.00000,     48:-1.00000,     49:-1.00000,
                         50:-1.00000,     51:-1.00000,     52:-1.00000,     53:-1.00000,
                         54:-1.00000,     55:-1.00000,     56:-1.00000,     57:-1.00000,
                         58:-1.00000,     59:-1.00000,     60:-1.00000,     61:-1.00000,
                         62:-1.00000,     64:-1.00000,     65:-1.00000,     66:-1.00000,
                         67:-1.00000,     68:-1.00000,     69:-1.00000,     70:-1.00000,
                         71:-1.00000,     40: 1.00000,     41: 1.00000,     42: 1.00000,
                          43: 1.00000,     44: 1.00000,     45: 1.00000,     36: 1.00000,
                          37: 1.00000,     38: 1.00000,     39: 1.00000
    64 |           |     46:-1.00000,     47:-1.00000,     48:-1.00000,     49:-1.00000,
                         50:-1.00000,     51:-1.00000,     52:-1.00000,     53:-1.00000,
                         54:-1.00000,     55:-1.00000,     56:-1.00000,     57:-1.00000,
                         58:-1.00000,     59:-1.00000,     60:-1.00000,     61:-1.00000,
                         62:-1.00000,     63:-1.00000,     65:-1.00000,     66:-1.00000,
                         67:-1.00000,     68:-1.00000,     69:-1.00000,     70:-1.00000,
                         71:-1.00000,     40: 1.00000,     41: 1.00000,     42: 1.00000,
                          43: 1.00000,     44: 1.00000,     45: 1.00000,     36: 1.00000,
                          37: 1.00000,     38: 1.00000,     39: 1.00000
    65 |           |     46:-1.00000,     47:-1.00000,     48:-1.00000,     49:-1.00000,
                         50:-1.00000,     51:-1.00000,     52:-1.00000,     53:-1.00000,
                         54:-1.00000,     55:-1.00000,     56:-1.00000,     57:-1.00000,
                         58:-1.00000,     59:-1.00000,     60:-1.00000,     61:-1.00000,
                         62:-1.00000,     63:-1.00000,     64:-1.00000,     66:-1.00000,
                         67:-1.00000,     68:-1.00000,     69:-1.00000,     70:-1.00000,
                         71:-1.00000,     40: 1.00000,     41: 1.00000,     42: 1.00000,
                          43: 1.00000,     44: 1.00000,     45: 1.00000,     36: 1.00000,
                          37: 1.00000,     38: 1.00000,     39: 1.00000
    66 |           |     46:-1.00000,     47:-1.00000,     48:-1.00000,     49:-1.00000,
                         50:-1.00000,     51:-1.00000,     52:-1.00000,     53:-1.00000,
                         54:-1.00000,     55:-1.00000,     56:-1.00000,     57:-1.00000,
                         58:-1.00000,     59:-1.00000,     60:-1.00000,     61:-1.00000,
                         62:-1.00000,     63:-1.00000,     64:-1.00000,     65:-1.00000,
                         67:-1.00000,     68:-1.00000,     69:-1.00000,     70:-1.00000,
                         71:-1.00000,     40: 1.00000,     41: 1.00000,     42: 1.00000,
                          43: 1.00000,     44: 1.00000,     45: 1.00000,     36: 1.00000,
                          37: 1.00000,     38: 1.00000,     39: 1.00000
    67 |           |     46:-1.00000,     47:-1.00000,     48:-1.00000,     49:-1.00000,
                         50:-1.00000,     51:-1.00000,     52:-1.00000,     53:-1.00000,
                         54:-1.00000,     55:-1.00000,     56:-1.00000,     57:-1.00000,
                         58:-1.00000,     59:-1.00000,     60:-1.00000,     61:-1.00000,
                         62:-1.00000,     63:-1.00000,     64:-1.00000,     65:-1.00000,
                         66:-1.00000,     68:-1.00000,     69:-1.00000,     70:-1.00000,
                         71:-1.00000,     40: 1.00000,     41: 1.00000,     42: 1.00000,
                          43: 1.00000,     44: 1.00000,     45: 1.00000,     36: 1.00000,
                          37: 1.00000,     38: 1.00000,     39: 1.00000
    68 |           |     46:-1.00000,     47:-1.00000,     48:-1.00000,     49:-1.00000,
                         50:-1.00000,     51:-1.00000,     52:-1.00000,     53:-1.00000,
                         54:-1.00000,     55:-1.00000,     56:-1.00000,     57:-1.00000,
                         58:-1.00000,     59:-1.00000,     60:-1.00000,     61:-1.00000,
                         62:-1.00000,     63:-1.00000,     64:-1.00000,     65:-1.00000,
                         66:-1.00000,     67:-1.00000,     69:-1.00000,     70:-1.00000,
                         71:-1.00000,     40: 1.00000,     41: 1.00000,     42: 1.00000,
                          43: 1.00000,     44: 1.00000,     45: 1.00000,     36: 1.00000,
                          37: 1.00000,     38: 1.00000,     39: 1.00000
    69 |           |     46:-1.00000,     47:-1.00000,     48:-1.00000,     49:-1.00000,
                         50:-1.00000,     51:-1.00000,     52:-1.00000,     53:-1.00000,
                         54:-1.00000,     55:-1.00000,     56:-1.00000,     57:-1.00000,
                         58:-1.00000,     59:-1.00000,     60:-1.00000,     61:-1.00000,
                         62:-1.00000,     63:-1.00000,     64:-1.00000,     65:-1.00000,
                         66:-1.00000,     67:-1.00000,     68:-1.00000,     70:-1.00000,
                         71:-1.00000,     40: 1.00000,     41: 1.00000,     42: 1.00000,
                          43: 1.00000,     44: 1.00000,     45: 1.00000,     36: 1.00000,
                          37: 1.00000,     38: 1.00000,     39: 1.00000
    70 |           |     46:-1.00000,     47:-1.00000,     48:-1.00000,     49:-1.00000,
                         50:-1.00000,     51:-1.00000,     52:-1.00000,     53:-1.00000,
                         54:-1.00000,     55:-1.00000,     56:-1.00000,     57:-1.00000,
                         58:-1.00000,     59:-1.00000,     60:-1.00000,     61:-1.00000,
                         62:-1.00000,     63:-1.00000,     64:-1.00000,     65:-1.00000,
                         66:-1.00000,     67:-1.00000,     68:-1.00000,     69:-1.00000,
                         71:-1.00000,     40: 1.00000,     41: 1.00000,     42: 1.00000,
                          43: 1.00000,     44: 1.00000,     45: 1.00000,     36: 1.00000,
                          37: 1.00000,     38: 1.00000,     39: 1.00000
    71 |           |     46:-1.00000,     47:-1.00000,     48:-1.00000,     49:-1.00000,
                         50:-1.00000,     51:-1.00000,     52:-1.00000,     53:-1.00000,
                         54:-1.00000,     55:-1.00000,     56:-1.00000,     57:-1.00000,
                         58:-1.00000,     59:-1.00000,     60:-1.00000,     61:-1.00000,
                         62:-1.00000,     63:-1.00000,     64:-1.00000,     65:-1.00000,
                         66:-1.00000,     67:-1.00000,     68:-1.00000,     69:-1.00000,
                         70:-1.00000,     40: 1.00000,     41: 1.00000,     42: 1.00000,
                          43: 1.00000,     44: 1.00000,     45: 1.00000,     36: 1.00000,
                          37: 1.00000,     38: 1.00000,     39: 1.00000
-------|-----------|--------
