SNNS network definition file V2.1-3D
generated at Tue Feb  9 12:03:31 1993
network name : oneView
source files : oneView.n
no. of units : 13
no. of connections : 56
no. of unit types : 0
no. of site types : 0


learning function : Std_Backpropagation
update function : Topological_Order



unit definition section :

   no. | typeName | unitName |    act   |   bias   | st |      position | act func | out func | sites
-------|----------|----------|----------|----------|----|---------------|----------|----------|--------
     1 |          |        A |  0.99485 |          | h  |    2,   4,  0 |          |          | 
     2 |          |        B | -0.65043 |          | h  |    3,   4,  0 |          |          | 
     3 |          |        C |  0.37654 |          | h  |    2,   5,  0 |          |          | 
     4 |          |        D |  0.37149 |          | h  |    3,   5,  0 |          |          | 
     5 |          |        E | -0.70836 |          | h  |    3,   2,  0 |          |          | 
     6 |          |        F | -0.74664 |          | h  |    4,   2,  0 |          |          | 
     7 |          |        G | -0.40568 |          | h  |    3,   3,  0 |          |          | 
     8 |          |        H | -0.32903 |          | h  |    4,   3,  0 |          |          | 
     9 |          |   A<<>>E | -0.77539 |          | h  |    1,   1,  0 |          |          | 
    10 |          |   B<<>>F | -0.01648 |          | h  |    2,   1,  0 |          |          | 
    11 |          |   C<<>>G |  0.41437 |          | h  |    1,   2,  0 |          |          | 
    12 |          |   D<<>>H |  0.73202 |          | h  |    2,   2,  0 |          |          | 
    13 |          |          | -0.70110 |          | o  |    2,   0,  0 |          |          | 
-------|----------|----------|----------|----------|----|---------------|----------|----------|--------



connection definition section :

target |      site | source:weight
-------|-----------|--------
     1 |           |      4: 0.20000,      2: 0.20000,      5: 0.20000,      9: 0.30000
     2 |           |      1: 0.20000,      3: 0.20000,     10: 0.30000,      6: 0.20000
     3 |           |      2: 0.20000,      4: 0.20000,      7: 0.20000,     11: 0.30000
     4 |           |      3: 0.20000,      8: 0.20000,     12: 0.30000
     5 |           |      8: 0.20000,      6: 0.20000,      1: 0.20000,      9: 0.30000
     6 |           |      5: 0.20000,      7: 0.20000,     10: 0.30000,      2: 0.20000
     7 |           |      6: 0.20000,      8: 0.20000,      3: 0.20000,     11: 0.30000
     8 |           |      7: 0.20000,      4: 0.20000,     12: 0.30000
     9 |           |     12: 0.30000,     10: 0.30000,      1: 0.30000,      5: 0.30000,
                          13: 0.50000
    10 |           |      9: 0.30000,     11: 0.30000,      2: 0.30000,      6: 0.30000,
                          13: 0.50000
    11 |           |     10: 0.30000,     12: 0.30000,      3: 0.30000,      7: 0.30000,
                          13: 0.50000
    12 |           |     11: 0.30000,      4: 0.30000,      8: 0.30000,     13: 0.50000
    13 |           |     10: 0.50000,      9: 0.50000,     11: 0.50000,     12: 0.50000
-------|-----------|--------
