SNNS network definition file V2.1-3D
generated at Wed Jan 27 13:45:09 1993
network name : arrayStar
source files : star.n
no. of units : 30
no. of connections : 20
no. of unit types : 0
no. of site types : 0


learning function : Std_Backpropagation
update function : Topological_Order



unit definition section :

   no. | typeName | unitName |    act   |   bias   | st |      position | act func | out func | sites
-------|----------|----------|----------|----------|----|---------------|----------|----------|--------
     1 |          |          |  0.70000 |          | h  |    3,   2,  0 |          |          | 
     2 |          |          |  0.70000 |          | h  |    2,   3,  0 |          |          | 
     3 |          |          |  0.70000 |          | h  |    1,   3,  0 |          |          | 
     4 |          |          |  0.70000 |          | h  |    1,   2,  0 |          |          | 
     5 |          |          |  0.70000 |          | h  |    1,   0,  0 |          |          | 
     6 |          |          |  0.70000 |          | h  |    2,   0,  0 |          |          | 
     7 |          |          |  0.70000 |          | h  |    7,   2,  0 |          |          | 
     8 |          |          |  0.70000 |          | h  |    6,   3,  0 |          |          | 
     9 |          |          |  0.70000 |          | h  |    5,   3,  0 |          |          | 
    10 |          |          |  0.70000 |          | h  |    5,   2,  0 |          |          | 
    11 |          |          |  0.70000 |          | h  |    5,   0,  0 |          |          | 
    12 |          |          |  0.70000 |          | h  |    6,   0,  0 |          |          | 
    13 |          |          |  0.70000 |          | h  |   11,   2,  0 |          |          | 
    14 |          |          |  0.70000 |          | h  |   10,   3,  0 |          |          | 
    15 |          |          |  0.70000 |          | h  |    9,   3,  0 |          |          | 
    16 |          |          |  0.70000 |          | h  |    9,   2,  0 |          |          | 
    17 |          |          |  0.70000 |          | h  |    9,   0,  0 |          |          | 
    18 |          |          |  0.70000 |          | h  |   10,   0,  0 |          |          | 
    19 |          |          |  0.70000 |          | h  |   15,   2,  0 |          |          | 
    20 |          |          |  0.70000 |          | h  |   14,   3,  0 |          |          | 
    21 |          |          |  0.70000 |          | h  |   13,   3,  0 |          |          | 
    22 |          |          |  0.70000 |          | h  |   13,   2,  0 |          |          | 
    23 |          |          |  0.70000 |          | h  |   13,   0,  0 |          |          | 
    24 |          |          |  0.70000 |          | h  |   14,   0,  0 |          |          | 
    25 |          |          |  0.70000 |          | h  |   19,   2,  0 |          |          | 
    26 |          |          |  0.70000 |          | h  |   18,   3,  0 |          |          | 
    27 |          |          |  0.70000 |          | h  |   17,   3,  0 |          |          | 
    28 |          |          |  0.70000 |          | h  |   17,   2,  0 |          |          | 
    29 |          |          |  0.70000 |          | h  |   17,   0,  0 |          |          | 
    30 |          |          |  0.70000 |          | h  |   18,   0,  0 |          |          | 
-------|----------|----------|----------|----------|----|---------------|----------|----------|--------



connection definition section :

target |      site | source:weight
-------|-----------|--------
     2 |           |      1: 0.00000
     3 |           |      1: 0.00000
     4 |           |      1: 0.00000
     5 |           |      1: 0.00000
     6 |           |      1: 0.00000
     8 |           |      7: 0.00000
     9 |           |      7: 0.00000
    10 |           |      7: 0.00000
    11 |           |      7: 0.00000
    12 |           |      7: 0.00000
    14 |           |     13: 0.00000
    15 |           |     13: 0.00000
    16 |           |     13: 0.00000
    17 |           |     13: 0.00000
    18 |           |     13: 0.00000
    20 |           |     19: 0.00000
    21 |           |     19: 0.00000
    22 |           |     19: 0.00000
    23 |           |     19: 0.00000
    24 |           |     19: 0.00000
    26 |           |     25: 0.00000
    27 |           |     25: 0.00000
    28 |           |     25: 0.00000
    29 |           |     25: 0.00000
    30 |           |     25: 0.00000
-------|-----------|--------
