SNNS network definition file V1.4-3D
generated at Wed Feb 13 20:06:19 1991

network name : necker
source files :
no. of units : 26
no. of connections : 138
no. of unit types : 0
no. of site types : 0


learning function : Std_Backpropagation
update function   : Topological_Order


unit default section :

act      | bias     | st | subnet | layer | act func     | out func
---------|----------|----|--------|-------|--------------|-------------
 0.00000 |  0.00000 | h  |      0 |     1 | Act_Logistic | Out_Identity 
---------|----------|----|--------|-------|--------------|-------------


unit definition section :

no. | typeName | unitName     | act      | bias     | st | position | act func | out func | sites
----|----------|--------------|----------|----------|----|----------|----------|----------|-------
  1 |          |        A     | -0.71010 | 0.0000   | h  |    2,   6, 0 ||| 
  2 |          |        B     |  0.67781 | 0.0      | h  |    3,   6, 0 ||| 
  3 |          |        C     |  0.09681 | 0.0      | h  |    2,   7, 0 ||| 
  4 |          |        D     |  0.58054 | 0.0      | h  |    3,   7, 0 ||| 
  5 |          |        E     |  0.63636 | 0.0      | h  |    3,   4, 0 |||
  6 |          |        F     | -0.50273 | 0.0      | h  |    4,   4, 0 |||
  7 |          |        G     | -0.96200 | 0.0      | h  |    3,   5, 0 |||
  8 |          |        H     |  0.98311 | 0.0      | h  |    4,   5, 0 |||
  9 |          |   A<<>>E     |  0.85790 | 0.0      | h  |    1,   3, 0 |||
 10 |          |   B<<>>F     | -0.17387 | 0.0      | h  |    2,   3, 0 |||
 11 |          |   C<<>>G     | -0.72920 | 0.0      | h  |    1,   4, 0 |||
 12 |          |   D<<>>H     | -0.54696 | 0.0      | h  |    2,   4, 0 |||
 13 |          |  bCloser     | -0.72978 | 0.0      | o  |    2,   2, 0 |||
 14 |          |        A     | -0.86856 | 0.0      | h  |    6,   6, 0 |||
 15 |          |        B     |  0.03984 | 0.0      | h  |    7,   6, 0 |||
 16 |          |        C     |  0.71537 | 0.0      | h  |    6,   7, 0 |||
 17 |          |        D     |  0.42089 | 0.0      | h  |    7,   7, 0 |||
 18 |          |        E     |  0.97090 | 0.0      | h  |    7,   4, 0 |||
 19 |          |        F     | -0.80814 | 0.0      | h  |    8,   4, 0 |||
 20 |          |        G     | -0.82149 | 0.0      | h  |    7,   5, 0 |||
 21 |          |        H     |  0.35692 | 0.0      | h  |    8,   5, 0 |||
 22 |          |   A<<>>E     |  0.45302 | 0.0      | h  |    5,   3, 0 |||
 23 |          |   B<<>>F     | -0.16829 | 0.0      | h  |    6,   3, 0 |||
 24 |          |   C<<>>G     |  0.47077 | 0.0      | h  |    5,   4, 0 |||
 25 |          |   D<<>>H     | -0.39166 | 0.0      | h  |    6,   4, 0 |||
 26 |          |  hCloser     |  0.60727 | 0.0      | o  |    6,   2, 0 |||
----|----------|--------------|----------|----------|----|-----------|---------|----------|--------



connection definition section :

target |      site | source:weight
-------|-----------|--------
     1 |           |      4: 0.20000,      2: 0.20000,      5: 0.20000,      9: 0.30000,
                          14:-0.57500
     2 |           |      1: 0.20000,      3: 0.20000,     10: 0.30000,      6: 0.20000,
                          15:-0.57500
     3 |           |      2: 0.20000,      4: 0.20000,      7: 0.20000,     11: 0.30000,
                          16:-0.57500
     4 |           |      3: 0.20000,      8: 0.20000,     12: 0.30000,     17:-0.57500
     5 |           |      8: 0.20000,      6: 0.20000,      1: 0.20000,      9: 0.30000,
                          18:-0.57500
     6 |           |      5: 0.20000,      7: 0.20000,     10: 0.30000,      2: 0.20000,
                          19:-0.57500
     7 |           |      6: 0.20000,      8: 0.20000,     20:-0.57500,      3: 0.20000,
                          11: 0.30000
     8 |           |      7: 0.20000,      4: 0.20000,     21:-0.57500,     12: 0.30000
     9 |           |     12: 0.30000,     10: 0.30000,      1: 0.30000,      5: 0.30000,
                          22:-0.80000,     13: 0.50000
    10 |           |      9: 0.30000,     11: 0.30000,      2: 0.30000,      6: 0.30000,
                          13: 0.50000,     23:-0.80000
    11 |           |     10: 0.30000,     12: 0.30000,      3: 0.30000,      7: 0.30000,
                          13: 0.50000,     24:-0.80000
    12 |           |     11: 0.30000,      4: 0.30000,      8: 0.30000,     13: 0.50000,
                          25:-0.80000
    13 |           |     10: 0.50000,      9: 0.50000,     11: 0.50000,     12: 0.50000,
                          26:-1.00000
    14 |           |     17: 0.20000,     15: 0.20000,      1:-0.57500,     22: 0.30000,
                          18: 0.20000
    15 |           |     14: 0.20000,     16: 0.20000,      2:-0.57500,     23: 0.30000,
                          19: 0.20000
    16 |           |     15: 0.20000,     17: 0.20000,     20: 0.20000,      3:-0.57500,
                          24: 0.30000
    17 |           |     16: 0.20000,      4:-0.57500,     21: 0.20000,     25: 0.30000
    18 |           |     21: 0.20000,     19: 0.20000,      5:-0.57500,     22: 0.30000,
                          14: 0.20000
    19 |           |     18: 0.20000,     20: 0.20000,      6:-0.57500,     23: 0.30000,
                          15: 0.20000
    20 |           |     19: 0.20000,     21: 0.20000,      7:-0.57500,     24: 0.30000,
                          16: 0.20000
    21 |           |     20: 0.20000,      8:-0.57500,     25: 0.30000,     17: 0.20000
    22 |           |     25: 0.30000,     23: 0.30000,      9:-0.80000,     14: 0.30000,
                          26: 0.50000,     18: 0.30000
    23 |           |     22: 0.30000,     24: 0.30000,     10:-0.80000,     15: 0.30000,
                          26: 0.50000,     19: 0.30000
    24 |           |     23: 0.30000,     25: 0.30000,     20: 0.30000,     11:-0.80000,
                          16: 0.30000,     26: 0.50000
    25 |           |     24: 0.30000,     21: 0.30000,     12:-0.80000,     26: 0.50000,
                          17: 0.30000
    26 |           |     22: 0.50000,     13:-1.00000,     23: 0.50000,     24: 0.50000,
                          25: 0.50000
-------|-----------|--------
