SNNS network definition file V1.4-3D
generated at Mon Feb 28 22:10:09 1994

network name : spirale1
source files :
no. of units : 18
no. of connections : 122
no. of unit types : 0
no. of site types : 0


learning function : Rprop
update function   : ENZO_prop


unit default section :

act      | bias     | st | subnet | layer | act func     | out func
---------|----------|----|--------|-------|--------------|-------------
 0.00000 |  0.00000 | h  |      0 |     1 | Act_Logistic | Out_Identity 
---------|----------|----|--------|-------|--------------|-------------


unit definition section :

no. | typeName | unitName | act      | bias     | st | position | act func       | out func | sites
----|----------|----------|----------|----------|----|----------|----------------|----------|-------
  1 |          |          |  0.00000 |  0.00000 | i  |  2, 3, 5 |||
  2 |          |          | -0.50000 |  0.00000 | i  |  2, 5, 5 |||
  3 |          |          |  0.45446 |  0.00000 | h  |  5, 2, 5 | Act_TanH |          | 
  4 |          |          |  0.20750 |  0.00000 | h  |  5, 3, 5 | Act_TanH |          | 
  5 |          |          | -0.25298 | -0.00000 | h  |  5, 4, 5 | Act_TanH |          | 
  6 |          |          |  0.28335 | -0.00000 | h  |  5, 5, 5 | Act_TanH |          | 
  7 |          |          | -0.11966 | -0.00000 | h  |  5, 6, 5 | Act_TanH |          | 
  8 |          |          |  0.13076 |  0.00000 | h  |  8, 2, 5 | Act_TanH |          | 
  9 |          |          |  0.14040 | -0.00001 | h  |  8, 3, 5 | Act_TanH |          | 
 10 |          |          |  0.44199 | -0.00000 | h  |  8, 4, 5 | Act_TanH |          | 
 11 |          |          |  0.61738 |  0.00001 | h  |  8, 5, 5 | Act_TanH |          | 
 12 |          |          |  0.54148 |  0.00000 | h  |  8, 6, 5 | Act_TanH |          | 
 13 |          |          |  0.13507 | -0.00001 | h  | 11, 2, 5 | Act_TanH |          | 
 14 |          |          |  0.98164 | -0.00001 | h  | 11, 3, 5 | Act_TanH |          | 
 15 |          |          | -0.09017 | -0.00000 | h  | 11, 4, 5 | Act_TanH |          | 
 16 |          |          | -0.70857 |  0.00000 | h  | 11, 5, 5 | Act_TanH |          | 
 17 |          |          | -0.64905 |  0.00000 | h  | 11, 6, 5 | Act_TanH |          | 
 18 |          |          | -0.76616 | -0.00002 | o  | 14, 4, 5 | Act_TanH |          | 
----|----------|----------|----------|----------|----|----------|----------------|----------|-------


connection definition section :

target | site | source:weight
-------|------|---------------------------------------------------------------------------------------------------------------------
     3 |      |  2:-0.98063,  1: 1.37505
     4 |      |  2:-0.42112,  1:-1.13622
     5 |      |  2: 0.51721,  1:-2.08785
     6 |      |  2:-0.58275,  1:-0.47488
     7 |      |  2: 0.24045,  1:-2.07921
     8 |      |  7:-0.10338,  6: 2.16099,  5: 1.01345,  4: 1.43648,  3:-0.62430,  2: 0.50269,  1: 1.54271
     9 |      |  7:-0.04694,  6:-1.44862,  5:-0.48775,  4:-1.72567,  3: 1.74737,  2: 0.02653,  1:-2.51838
    10 |      |  7:-0.85157,  6:-0.93407,  5:-0.76659,  4:-0.93465,  3: 1.58055,  2: 0.16210,  1:-1.09055
    11 |      |  7:-0.61855,  6: 0.39158,  5:-0.93804,  4: 0.26283,  3: 0.70711,  2: 0.15458,  1: 0.68804
    12 |      |  7:-0.88617,  6: 0.60414,  5:-1.57936,  4: 0.01180,  3: 1.20463,  2: 1.24071,  1:-0.41464
    13 |      | 12: 0.38413, 11:-0.32856, 10: 0.01596,  9:-2.51381,  8: 0.79761,  7:-1.03209,  6: 0.91931,  5:-0.58242,  4: 0.15883,
                 3: 0.11473,  2: 0.48796,  1: 0.86036
    14 |      | 12:-0.29272, 11: 1.65112, 10: 1.90312,  9:-0.65026,  8: 1.46639,  7:-0.43828,  6: 0.85203,  5:-0.81993,  4: 0.30146,
                 3: 1.24772,  2: 1.18874,  1:-0.19760
    15 |      | 12: 1.61921, 11:-0.88528, 10:-0.05629,  9:-2.22608,  8:-0.38469,  7: 0.45265,  6: 0.69735,  5: 0.59087,  4: 0.02038,
                 3: 0.18876,  2: 0.23369,  1:-0.34127
    16 |      | 12:-1.31729, 11: 0.36825, 10:-1.69536,  9: 0.83453,  8:-0.68350,  7: 0.87649,  6: 1.56413,  5: 0.19790,  4: 1.50216,
                 3: 0.51465,  2: 1.02170,  1: 0.74575
    17 |      | 12: 0.16247, 11: 0.01827, 10:-2.12024,  9:-0.82921,  8:-1.49155,  7:-0.10684,  6: 1.37020,  5:-0.01796,  4: 0.64560,
                 3: 0.21736,  2: 0.52512,  1: 0.73080
    18 |      | 17:-3.68409, 16: 2.55692, 15:-2.74287, 14:-3.01615, 13: 3.56124, 12: 0.44631, 11: 0.63825, 10: 0.37843,  9:-0.16440,
                 8: 1.51494,  7:-0.32319,  6:-0.15862,  5:-0.08215,  4:-0.45903,  3:-0.13229,  2: 0.39045,  1:-0.37033
-------|------|---------------------------------------------------------------------------------------------------------------------
