SNNS network definition file V1.4-3D
generated at Wed Feb 23 15:59:13 1994

network name : n10
source files :
no. of units : 25
no. of connections : 100
no. of unit types : 0
no. of site types : 0


learning function : Rprop
update function   : ENZO_prop


unit default section :

act      | bias     | st | subnet | layer | act func    | out func
---------|----------|----|--------|-------|-------------|-------------
 0.00000 |  0.00000 | h  |      0 |     1 | Act_Logistic | Out_Identity 
---------|----------|----|--------|-------|-------------|-------------


unit definition section :

no. | typeName | unitName | act      | bias     | st | position | act func      | out func | sites
----|----------|----------|----------|----------|----|----------|---------------|----------|-------
  1 |          |          |  0.00000 |  0.00000 | i  |  2, 2,17 | Act_Logistic |          | 
  2 |          |          |  0.00000 |  0.00000 | i  |  2, 3,17 | Act_Logistic |          | 
  3 |          |          |  0.00000 |  0.00000 | i  |  2, 4,17 | Act_Logistic |          | 
  4 |          |          |  0.00000 |  0.00000 | i  |  2, 5,17 | Act_Logistic |          | 
  5 |          |          |  0.00000 |  0.00000 | i  |  2, 6,17 | Act_Logistic |          | 
  6 |          |          |  0.00000 |  0.00000 | i  |  2, 7,17 | Act_Logistic |          | 
  7 |          |          |  0.00000 |  0.00000 | i  |  2, 8,17 | Act_Logistic |          | 
  8 |          |          |  0.00000 |  0.00000 | i  |  2, 9,17 | Act_Logistic |          | 
  9 |          |          |  0.00000 |  0.00000 | i  |  2,10,17 | Act_Logistic |          | 
 10 |          |          |  0.00000 |  0.00000 | i  |  2,11,17 | Act_Logistic |          | 
 11 |          |          |  0.00000 |  0.00000 | h  |  8, 3,17 | Act_Logistic |          | 
 12 |          |          |  0.00000 |  0.00000 | h  |  8, 5,17 | Act_Logistic |          | 
 13 |          |          |  0.00000 |  0.00000 | h  |  8, 7,17 | Act_Logistic |          | 
 14 |          |          |  0.00000 |  0.00000 | h  |  8, 9,17 | Act_Logistic |          | 
 15 |          |          |  0.00000 |  0.00000 | h  |  8,11,17 | Act_Logistic |          | 
 16 |          |          |  0.00000 |  0.00000 | o  | 14, 2,17 | Act_Logistic |          | 
 17 |          |          |  0.00000 |  0.00000 | o  | 14, 3,17 | Act_Logistic |          | 
 18 |          |          |  0.00000 |  0.00000 | o  | 14, 4,17 | Act_Logistic |          | 
 19 |          |          |  0.00000 |  0.00000 | o  | 14, 5,17 | Act_Logistic |          | 
 20 |          |          |  0.00000 |  0.00000 | o  | 14, 6,17 | Act_Logistic |          | 
 21 |          |          |  0.00000 |  0.00000 | o  | 14, 7,17 | Act_Logistic |          | 
 22 |          |          |  0.00000 |  0.00000 | o  | 14, 8,17 | Act_Logistic |          | 
 23 |          |          |  0.00000 |  0.00000 | o  | 14, 9,17 | Act_Logistic |          | 
 24 |          |          |  0.00000 |  0.00000 | o  | 14,10,17 | Act_Logistic |          | 
 25 |          |          |  0.00000 |  0.00000 | o  | 14,11,17 | Act_Logistic |          | 
----|----------|----------|----------|----------|----|----------|---------------|----------|-------


connection definition section :

target | site | source:weight
-------|------|---------------------------------------------------------------------------------------------------------------------
    11 |      |  1: 0.00000,  2: 0.00000,  3: 0.00000,  4: 0.00000,  5: 0.00000,  6: 0.00000,  7: 0.00000,  8: 0.00000,  9: 0.00000,
                10: 0.00000
    12 |      |  1: 0.00000,  2: 0.00000,  3: 0.00000,  4: 0.00000,  5: 0.00000,  6: 0.00000,  7: 0.00000,  8: 0.00000,  9: 0.00000,
                10: 0.00000
    13 |      |  1: 0.00000,  2: 0.00000,  3: 0.00000,  4: 0.00000,  5: 0.00000,  6: 0.00000,  7: 0.00000,  8: 0.00000,  9: 0.00000,
                10: 0.00000
    14 |      |  1: 0.00000,  2: 0.00000,  3: 0.00000,  4: 0.00000,  5: 0.00000,  6: 0.00000,  7: 0.00000,  8: 0.00000,  9: 0.00000,
                10: 0.00000
    15 |      |  1: 0.00000,  2: 0.00000,  3: 0.00000,  4: 0.00000,  5: 0.00000,  6: 0.00000,  7: 0.00000,  8: 0.00000,  9: 0.00000,
                10: 0.00000
    16 |      | 11: 0.00000, 12: 0.00000, 13: 0.00000, 14: 0.00000, 15: 0.00000
    17 |      | 11: 0.00000, 12: 0.00000, 13: 0.00000, 14: 0.00000, 15: 0.00000
    18 |      | 11: 0.00000, 12: 0.00000, 13: 0.00000, 14: 0.00000, 15: 0.00000
    19 |      | 11: 0.00000, 12: 0.00000, 13: 0.00000, 14: 0.00000, 15: 0.00000
    20 |      | 11: 0.00000, 12: 0.00000, 13: 0.00000, 14: 0.00000, 15: 0.00000
    21 |      | 11: 0.00000, 12: 0.00000, 13: 0.00000, 14: 0.00000, 15: 0.00000
    22 |      | 11: 0.00000, 12: 0.00000, 13: 0.00000, 14: 0.00000, 15: 0.00000
    23 |      | 11: 0.00000, 12: 0.00000, 13: 0.00000, 14: 0.00000, 15: 0.00000
    24 |      | 11: 0.00000, 12: 0.00000, 13: 0.00000, 14: 0.00000, 15: 0.00000
    25 |      | 11: 0.00000, 12: 0.00000, 13: 0.00000, 14: 0.00000, 15: 0.00000
-------|------|---------------------------------------------------------------------------------------------------------------------
